1.456754207611083984e-01
4.354416887508705258e-06
4.534636445896467194e-06
1.322135478258132935e-01
1.079469802789390087e-04
1.483739912509918213e-01
1.483237296342849731e-01
7.891003042459487915e-05
3.041008858417626470e-05
1.349523154203779995e-05
-2.222226976300589740e-05
2.047642022371292114e-01
1.521136164665222168e-01
1.460760831832885742e-01
1.335241645574569702e-01
1.362838894128799438e-01
1.332773268222808838e-01
1.308361887931823730e-01
1.425494849681854248e-01
1.087405507860239595e-05
1.389787197113037109e-01
-6.040412699803709984e-06
-6.600358756259083748e-05
1.307216137647628784e-01
2.206041216850280762e-01
2.721164822578430176e-01
1.297331303358078003e-01
1.619947552680969238e-01
2.874675393104553223e-01
1.547126024961471558e-01
4.317753337090834975e-06
1.784649789333343506e-01
1.731350494083017111e-04
1.689437180757522583e-01
-1.588592422194778919e-04
1.190733164548873901e-01
1.766208559274673462e-01
7.376918802037835121e-06
2.181452810764312744e-01
1.619741469621658325e-01
1.284496486186981201e-01
1.694471985101699829e-01
1.383581012487411499e-01
-5.693018465535715222e-05
1.480226814746856689e-01
-3.130178811261430383e-05
-1.712418597890064120e-04
8.356359467143192887e-05
1.507049351930618286e-01
8.572905062464997172e-05
1.858741343021392822e-01
1.019245758652687073e-01
1.351771950721740723e-01
8.239638805389404297e-02
1.036837711581028998e-04
-7.773809920763596892e-05
1.725825220346450806e-01
-1.119580701924860477e-05
1.308993548154830933e-01
-1.530400331830605865e-04
5.879402669961564243e-05
-3.566325176507234573e-05
2.154818922281265259e-01
-6.768676394131034613e-05
1.229295432567596436e-01
-2.109659544657915831e-05
-7.473922596545889974e-05
-1.525924599263817072e-04
-5.018110095988959074e-05
4.105568586965091527e-05
-4.707657353719696403e-06
-1.135641141445375979e-04
2.147673219442367554e-01
2.823323607444763184e-01
-2.345605207665357739e-05
2.553526163101196289e-01
2.489388585090637207e-01
1.500211209058761597e-01
6.131813279353082180e-07
1.000068459688918665e-05
1.282526701688766479e-01
-5.473014971357770264e-05
2.468736602168064564e-05
2.023291885852813721e-01
1.359897851943969727e-01
1.014157459139823914e-01
-3.890356310876086354e-06
2.055615037679672241e-01
1.615439206361770630e-01
1.621507704257965088e-01
1.262944042682647705e-01
1.473544687032699585e-01
7.219762483146041632e-05
1.661510020494461060e-01
-1.715877078822813928e-05
3.647976700449362397e-05
3.547982851159758866e-05
1.307708173990249634e-01
2.037228114204481244e-05
8.930634794523939490e-05
1.416425366187468171e-04
2.592110931873321533e-01
2.380066066980361938e-01
1.620503067970275879e-01
1.810674518346786499e-01
1.771722733974456787e-01
1.934550404548645020e-01
1.723249703645706177e-01
1.015680463751778007e-04
-8.938947576098144054e-05
4.900415660813450813e-06
1.983026415109634399e-01
1.744177192449569702e-01
-2.115098322974517941e-05
1.769761145114898682e-01
1.760072261095046997e-01
-6.196183676365762949e-06
3.109056706307455897e-05
1.988844424486160278e-01
1.770065426826477051e-01
1.541263908147811890e-01
-4.990052184439264238e-05
3.615769310272298753e-05
1.671517789363861084e-01
1.980813249247148633e-05
-7.426103547913953662e-05
6.405416206689551473e-05
-3.233665484003722668e-05
1.811394989490509033e-01
-2.383639221079647541e-04
1.292170435190200806e-01
2.305816451553255320e-05
-1.883760705823078752e-04
-9.507402137387543917e-05
1.522623896598815918e-01
2.253315299749374390e-01
9.960948955267667770e-05
1.447044461965560913e-01
2.057521939277648926e-01
1.353564560413360596e-01
1.462038457393646240e-01
2.151710987091064453e-01
2.079381197690963745e-01
-4.519900357990991324e-06
2.225721329450607300e-01
-2.759812559816055000e-05
-2.893673809012398124e-05
1.691445112228393555e-01
1.911756545305252075e-01
1.653110302868299186e-05
1.466018259525299072e-01
1.745226979255676270e-01
2.715919315814971924e-01
-3.613513399614021182e-06
2.818766832351684570e-01
1.784424334764480591e-01
8.569537021685391665e-05
2.210095971822738647e-01
3.701362584251910448e-05
1.709275692701339722e-01
1.721832007169723511e-01
2.246377698611468077e-05
-1.333672298642341048e-05
-9.689110811450518668e-07
1.620234549045562744e-01
-1.349187641608295962e-05
1.038138940930366516e-01
1.951449811458587646e-01
4.193885979475453496e-05
4.410861583892256021e-05
1.472485018894076347e-05
1.295750141143798828e-01
1.675863415002822876e-01
-8.181313751265406609e-05
-2.259033135487698019e-05
2.518118619918823242e-01
1.761002349667251110e-04
1.309149229200556874e-04
1.574237942695617676e-01
1.471633315086364746e-01
1.500836461782455444e-01
1.882481276988983154e-01
1.374885439872741699e-01
1.269979178905487061e-01
1.439691334962844849e-01
1.474181772209703922e-04
1.755859255790710449e-01
6.815229426138103008e-06
1.057540848851203918e-01
1.944886147975921631e-01
-2.410574234090745449e-05
-3.262345853727310896e-05
1.474526652600616217e-04
1.168099865317344666e-01
1.475436687469482422e-01
-4.184578210697509348e-05
9.612267464399337769e-02
1.152477189898490906e-01
1.662933081388473511e-01
1.327441483736038208e-01
-4.727547275251708925e-05
1.659442037343978882e-01
-2.708967258513439447e-05
1.256819814443588257e-01
2.409839544270653278e-05
-6.327859591692686081e-05
-6.832083454355597496e-05
1.929277032613754272e-01
2.435697764158248901e-01
-2.410115484963171184e-05
2.453797161579132080e-01
1.224165316671133041e-05
8.240480383392423391e-05
2.020204663276672363e-01
1.889825944090262055e-05
1.681651473045349121e-01
1.656747609376907349e-01
1.407758742570877075e-01
-7.107330020517110825e-06
9.119392780121415854e-05
3.103126073256134987e-05
1.818515658378601074e-01
1.737126559019088745e-01
1.326570808887481689e-01
2.043513059616088867e-01
1.728162467479705811e-01
2.757669389247894287e-01
1.588311046361923218e-01
-6.273355393204838037e-05
1.634334772825241089e-01
1.923586577177047729e-01
1.716411113739013672e-01
2.049361169338226318e-01
1.910506398417055607e-05
-2.449931162118446082e-05
3.045987068617250770e-05
-9.541283361613750458e-05
-8.266326767625287175e-05
1.861434429883956909e-05
1.470602899789810181e-01
1.624746024608612061e-01
2.114581465721130371e-01
2.579441570560447872e-05
-2.573630990809760988e-05
1.820371150970458984e-01
1.188693642616271973e-01
1.537225842475891113e-01
-8.128365152515470982e-05
9.944588690996170044e-02
1.859174966812133789e-01
1.632790008443407714e-05
-1.616215558897238225e-05
1.541300415992736816e-01
1.054550375556573272e-05
-7.520957296947017312e-05
2.981763565912842751e-03
1.441739648580551147e-01
5.228796362644061446e-05
-8.206954225897789001e-05
1.086330041289329529e-01
1.363242864608764648e-01
1.915844976902008057e-01
1.157269030809402466e-01
1.994462758302688599e-01
1.301566958427429199e-01
-1.464074921386782080e-05
1.193877384066581726e-01
4.896741302218288183e-06
1.102215722203254700e-01
1.037404611706733704e-01
2.803149254759773612e-05
1.575165333633776754e-05
1.768345534801483154e-01
4.909212293568998575e-06
1.851065026130527258e-04
1.506711244583129883e-01
2.874547839164733887e-01
1.606904119253158569e-01
1.346346586942672729e-01
7.155042112572118640e-05
1.404773294925689697e-01
-2.299015613971278071e-05
-5.594030153588391840e-05
1.712103486061096191e-01
1.249292716383934021e-01
1.553066670894622803e-01
1.568762362003326416e-01
1.130762398242950439e-01
1.629117876291275024e-01
-3.359559195814654231e-05
2.022565305233001709e-01
9.821144491434097290e-02
1.399580836296081543e-01
2.353134751319885254e-01
1.570255309343338013e-01
-1.453432378184515983e-05
-3.286948776803910732e-05
1.731875985860824585e-01
1.817757487297058105e-01
1.547434031963348389e-01
-1.578594310558401048e-05
2.633842086652293801e-06
1.862000077962875366e-01
1.682822039583697915e-05
1.725229322910308838e-01
1.479974687099456787e-01
9.584141662344336510e-05
2.238102704286575317e-01
-6.360688712447881699e-05
1.005048252409324050e-04
1.163632497191429138e-01
1.592953354120254517e-01
-7.686994649702683091e-05
1.460747122764587402e-01
1.664235293865203857e-01
3.754423232749104500e-05
2.063738703727722168e-01
-8.446611900581046939e-05
1.866951882839202881e-01
2.274816781282424927e-01
1.447498351335525513e-01
2.802596645778976381e-05
1.997631625272333622e-05
1.904015392065048218e-01
1.350635737180709839e-01
1.432996094226837158e-01
2.914153810706920922e-05
-2.541586582083255053e-06
-5.922868513152934611e-05
5.518063517229165882e-06
2.785224318504333496e-01
2.224901616573333740e-01
1.709023118019104004e-01
1.129145845770835876e-01
2.126200944185256958e-01
2.885765433311462402e-01
-1.250391069334000349e-04
1.282000988721847534e-01
-6.453113019233569503e-05
2.110601663589477539e-01
1.989908069372177124e-01
3.729209856828674674e-05
-5.140918801771476865e-06
5.869445885764434934e-05
1.473836898803710938e-01
-1.361850991088431329e-05
1.560445129871368408e-01
3.099232912063598633e-01
1.423117518424987793e-01
2.226117253303527832e-01
3.269499211455695331e-05
1.229067221283912659e-01
2.607635259628295898e-01
1.116094063036143780e-05
-5.821338709210976958e-05
-3.490538801997900009e-06
1.409935206174850464e-01
2.184595167636871338e-01
4.864206857746466994e-06
2.164849638938903809e-01
3.432050652918405831e-05
2.198696434497833252e-01
-2.012154072872363031e-05
2.564747035503387451e-01
-4.178058225079439580e-05
6.971135735511779785e-05
1.949669122695922852e-01
1.387709230184555054e-01
1.288217936235014349e-05
1.996290385723114014e-01
1.681002974510192871e-01
2.113820016384124756e-01
-2.427264553261920810e-05
4.004632501164451241e-05
-1.056213950505480170e-04
1.970619112253189087e-01
2.555484934418927878e-05
3.091998587478883564e-05
1.758669912815093994e-01
-1.284743048017844558e-04
-7.531125447712838650e-05
-3.939003363484516740e-05
1.469966322183609009e-01
2.069651236524805427e-05
1.589889824390411377e-01
1.069009006023406982e-01
1.298981308937072754e-01
4.406608059071004391e-05
1.423727422952651978e-01
7.919916242826730013e-06
-1.840241020545363426e-04
3.046401143074035645e-01
1.804883182048797607e-01
2.075458168983459473e-01
-3.210823342669755220e-05
1.563311368227005005e-01
2.363251000642776489e-01
4.342755710240453482e-05
1.282129287719726562e-01
1.598882973194122314e-01
2.503101825714111328e-01
1.893447551992721856e-05
-9.369527833769097924e-05
-1.588614395586773753e-04
-7.700113201281055808e-06
2.790065627777948976e-05
1.179925352334976196e-01
-5.295895607559941709e-05
1.258790194988250732e-01
1.670657396316528320e-01
-1.126047573052346706e-05
1.545403003692626953e-01
1.522005051374435425e-01
3.711481986101716757e-05
-2.539534216339234263e-05
6.330185715341940522e-05
2.498887988622300327e-05
1.331226527690887451e-01
1.215459633385762572e-05
1.980852539418265224e-05
1.452578902244567871e-01
1.831166148185729980e-01
2.021410909947007895e-05
1.575605869293212891e-01
-4.017316314275376499e-06
1.703956872224807739e-01
-1.743155735312029719e-05
3.940284659620374441e-05
-9.402476280229166150e-05
9.918224532157182693e-05
2.127446979284286499e-01
2.162955552339553833e-01
1.619875729084014893e-01
-2.157991184503771365e-05
2.114616036415100098e-01
2.271585166454315186e-01
-7.527472916990518570e-05
-5.733543366659432650e-05
1.640115082263946533e-01
1.755595058202743530e-01
3.611092324717901647e-05
1.640220216359011829e-05
1.394873559474945068e-01
7.298067794181406498e-05
1.944565176963806152e-01
1.550868600606918335e-01
1.641089469194412231e-01
1.728563159704208374e-01
1.824188679456710815e-01
2.410582602024078369e-01
2.266910996695514768e-05
4.665547385229729116e-05
1.918173283338546753e-01
-2.856074715964496136e-04
2.006909400224685669e-01
1.728471964597702026e-01
1.753541529178619385e-01
1.027981713414192200e-01
-1.646921373321674764e-05
-2.812067032209597528e-05
1.921054124832153320e-01
1.263051778078079224e-01
1.091737970709800720e-01
1.614365875720977783e-01
1.311011910438537598e-01
1.740107536315917969e-01
1.802684366703033447e-01
3.194418604834936559e-05
2.217773795127868652e-01
-1.510054280515760183e-04
1.443828195333480835e-01
-2.145381404261570424e-05
1.235673725605010986e-01
3.035607369383797050e-05
1.772475093603134155e-01
1.487687528133392334e-01
2.295178323984146118e-01
1.190025359392166138e-04
1.263923048973083496e-01
1.536195427179336548e-01
-5.872948531759902835e-05
-3.161857603117823601e-05
-7.338713476201519370e-05
1.707228869199752808e-01
1.509474962949752808e-01
1.727725248201750219e-05
-1.549619628349319100e-05
-3.759703395189717412e-05
8.531503408448770642e-05
1.985916942358016968e-01
1.012249558698385954e-04
1.803010404109954834e-01
2.348408088437281549e-06
-3.393486986169591546e-05
-6.600141205126419663e-06
2.246312648057937622e-01
1.285822218051180243e-04
1.499035060405731201e-01
1.568481922149658203e-01
-7.723904855083674192e-05
1.880076378583908081e-01
2.386976480484008789e-01
1.268589198589324951e-01
-4.332475509727373719e-05
1.204300133395008743e-05
3.025836485903710127e-05
1.492455452680587769e-01
1.517435312271118164e-01
1.180249229073524475e-01
-6.315632344922050834e-05
-2.015294739976525307e-06
1.578603237867355347e-01
