4.334931145422160625e-05
1.366499811410903931e-01
1.813822984695434570e-01
2.361639142036437988e-01
3.664083487819880247e-04
-1.032089858199469745e-04
1.553202455397695303e-04
2.951135337352752686e-01
3.009704649448394775e-01
1.964257657527923584e-01
1.460020721424371004e-04
8.899769454728811979e-05
-3.231207301723770797e-05
2.103895246982574463e-01
1.884330064058303833e-01
2.249252349138259888e-01
7.146147254388779402e-05
3.484035730361938477e-01
9.397114627063274384e-04
8.912575140129774809e-05
9.943156689405441284e-02
-1.916221299325115979e-05
4.954749601893126965e-05
-1.537546777399256825e-04
-7.837609155103564262e-05
-6.293481419561430812e-05
-1.117485517170280218e-04
-2.575986036390531808e-05
-1.020656127366237342e-04
1.702222824096679688e-01
4.735558832180686295e-05
2.313832374056801200e-05
1.918193697929382324e-01
-7.658435788471251726e-05
2.831197977066040039e-01
2.911911906267050654e-05
2.010965198278427124e-01
1.484661251306533813e-01
1.992778629064559937e-01
1.090775185730308294e-04
1.783943623304367065e-01
-1.371488760923966765e-04
1.428535906597971916e-04
3.148784041404724121e-01
3.553376882337033749e-05
6.514287088066339493e-05
8.926766895456239581e-06
1.489428728818893433e-01
1.753545999526977539e-01
1.672467440366744995e-01
4.222519783070310950e-05
2.519127428531646729e-01
1.570684164762496948e-01
-8.266957593150436878e-05
1.103267459257040173e-05
1.489400118589401245e-01
1.375807970762252808e-01
1.101983580156229436e-04
7.852201815694570541e-05
-5.144131864653900266e-05
1.675418317317962646e-01
-1.227590400958433747e-04
2.116015851497650146e-01
1.538354845251888037e-04
1.406153291463851929e-01
2.185635268688201904e-01
1.277453750371932983e-01
2.154189348220825195e-01
2.718433737754821777e-01
2.359539270401000977e-01
2.460091859102249146e-01
3.206039400538429618e-05
1.852307915687561035e-01
1.879910996649414301e-05
2.459316253662109375e-01
-3.225025648134760559e-05
4.299303691368550062e-05
7.801904575899243355e-05
2.122764736413955688e-01
3.634683889686129987e-05
2.442356199026107788e-01
1.413258165121078491e-01
1.800888776779174805e-01
-1.530129811726510525e-04
1.381898671388626099e-01
-8.137480472214519978e-05
-3.374024163349531591e-05
-2.043890344793908298e-05
1.042404249310493469e-01
1.607009917497634888e-01
8.712668204680085182e-05
4.940440703649073839e-05
1.641719192266464233e-01
2.759124338626861572e-01
-4.538604116532951593e-06
-1.888152910396456718e-04
2.120343197020702064e-05
2.239228039979934692e-01
1.721668243408203125e-01
1.716019511222839355e-01
1.808609217405319214e-01
4.597727456712163985e-05
6.240002403501421213e-05
-1.605207216925919056e-04
-5.768222763435915112e-06
2.201865315437316895e-01
-3.547107917256653309e-05
2.171731144189834595e-01
1.361173391342163086e-01
1.334515810012817383e-01
7.725790055701509118e-06
1.648139804601669312e-01
-5.892701301490888000e-05
2.333806008100509644e-01
2.018613368272781372e-01
2.458901852369308472e-01
-5.064432480139657855e-05
2.081065773963928223e-01
1.677520722150802612e-01
2.119724154472351074e-01
1.727760583162307739e-01
2.240426689386367798e-01
-5.524084917851723731e-05
2.236913740634918213e-01
2.109331637620925903e-01
2.097963094711303711e-01
7.719190034549683332e-05
1.566968411207199097e-01
1.715719699859619141e-01
7.963457755977287889e-05
-1.935325781232677400e-05
1.509085595607757568e-01
1.876639872789382935e-01
-5.142036388861015439e-05
1.875170618295669556e-01
2.991549670696258545e-01
1.957193315029144287e-01
-7.570558955194428563e-05
1.878336220979690552e-01
-1.335288543486967683e-04
7.613773777848109603e-05
1.891774237155914307e-01
1.068697092705406249e-04
1.704335063695907593e-01
-7.868424290791153908e-05
3.868539351969957352e-06
1.637088507413864136e-01
3.842493169941008091e-04
1.011475542327389121e-04
1.660983413457870483e-01
1.668590009212493896e-01
1.448528468608856201e-01
2.544008202676195651e-05
1.828175485134124756e-01
9.028194654092658311e-06
-5.859234079252928495e-06
-8.839744259603321552e-05
-2.018615487031638622e-04
-9.971825056709349155e-05
3.128719254164025187e-05
3.569500040612183511e-05
2.729508560150861740e-05
-4.853909558732993901e-05
1.594175398349761963e-01
1.980248093605041504e-01
2.654021680355072021e-01
1.392241269350051880e-01
2.833656617440283298e-04
2.114814072847366333e-01
2.677509188652038574e-01
-1.282001758227124810e-04
1.835622191429138184e-01
2.252397686243057251e-01
-8.021357643883675337e-05
-4.891018397756852210e-05
1.919427663087844849e-01
2.116940468549728394e-01
1.385787800245452672e-05
1.519000083208084106e-01
1.959362030029296875e-01
2.008668333292007446e-01
5.939541733823716640e-05
2.508284747600555420e-01
1.018543407553806901e-04
1.403598338365554810e-01
2.463012635707855225e-01
1.736752986907958984e-01
-2.786005461530294269e-05
4.968793655280023813e-05
1.829672008752822876e-01
-3.338673195685259998e-05
-9.348626190330833197e-05
1.755764782428741455e-01
1.887474805116653442e-01
2.993267476558685303e-01
2.888464629650115967e-01
-1.541254605399444699e-04
1.035926652548369020e-05
6.953817501198500395e-05
2.864017733372747898e-05
2.102791815996170044e-01
1.581950187683105469e-01
8.705933578312397003e-05
-8.371724106837064028e-05
1.471190601587295532e-01
2.931480776169337332e-05
-7.119244401110336185e-06
1.581580340862274170e-01
1.430363190593197942e-04
-3.857021511066704988e-05
5.404646435636095703e-05
-1.602458360139280558e-05
1.853599846363067627e-01
2.015033513307571411e-01
2.131811231374740601e-01
6.368410686263814569e-05
1.589048479218035936e-04
2.136180549860000610e-01
-7.946773257572203875e-05
2.117667827405966818e-05
-1.169268653029575944e-04
1.795641332864761353e-01
2.034603059291839600e-01
1.118110939860343933e-01
8.052638804656453431e-06
1.540993452072143555e-01
1.546897739171981812e-01
1.523348689079284668e-01
2.989329695701599121e-01
1.851504202932119370e-05
2.093032747507095337e-01
-1.176055884570814669e-04
1.587516814470291138e-01
1.033712760545313358e-04
2.082038223743438721e-01
2.159233093261718750e-01
-4.766506026498973370e-05
-5.341246287571266294e-05
-2.945877713500522077e-05
-2.829690492944791913e-05
1.123361960053443909e-01
2.238814830780029297e-01
5.686192525899969041e-05
1.202475130558013916e-01
1.719964593648910522e-01
2.396300286054611206e-01
2.242656052112579346e-01
1.877323538064956665e-01
2.765609679045155644e-06
-1.108951255446299911e-05
2.048183977603912354e-01
1.399417668581008911e-01
2.356847289775032550e-05
2.268624375574290752e-04
2.475879788398742676e-01
1.982325017452239990e-01
2.951576411724090576e-01
1.314502060413360596e-01
1.854738891124725342e-01
1.940377205610275269e-01
-1.816755975596606731e-04
4.758612703881226480e-05
1.692635565996170044e-01
1.920326948165893555e-01
2.119936645030975342e-01
2.116734087467193604e-01
1.201387867331504822e-01
1.414884030818939209e-01
2.069768160581588745e-01
1.148703619837760925e-01
2.039859741926193237e-01
2.194875776767730713e-01
-5.240381142357364297e-05
-1.516258635092526674e-06
-6.964783824514597654e-05
-9.473569662077352405e-05
1.433642506599426270e-01
2.394575923681259155e-01
1.896175444126129150e-01
1.918513029813766479e-01
1.962352842092514038e-01
1.951238662004470825e-01
1.698042601346969604e-01
1.655300110578536987e-01
2.031605839729309082e-01
5.411480015027336776e-05
-3.577985262381844223e-05
2.076724320650100708e-01
1.245724484324455261e-01
2.928899526596069336e-01
1.886956989765167236e-01
9.151552512776106596e-05
-1.721449916658457369e-05
2.221142500638961792e-01
-1.674676168477162719e-04
2.366697639226913452e-01
1.017964823404327035e-04
3.602395736379548907e-05
1.453973799943923950e-01
2.144461870193481445e-01
1.286092810914851725e-05
2.118262052536010742e-01
2.728896652115508914e-05
3.522736430168151855e-01
2.650266396813094616e-04
2.174134133383631706e-04
2.567948698997497559e-01
-3.346675657667219639e-05
-6.053274410078302026e-05
6.974090501898899674e-05
1.815851479768753052e-01
1.591054648160934448e-01
1.346762180328369141e-01
1.719368398189544678e-01
2.009927779436111450e-01
1.648313701152801514e-01
3.257445693016052246e-01
1.893901228904724121e-01
4.525650729192420840e-05
2.154146879911422729e-01
1.924202740192413330e-01
3.185952007770538330e-01
-9.462479647481814027e-05
-2.702281199162825942e-05
2.249995917081832886e-01
1.855023652315139771e-01
1.791763603687286377e-01
-8.069760224316269159e-05
4.806460492545738816e-05
1.435462218069005758e-05
-1.969276581803569570e-06
2.028337568044662476e-01
1.721570491790771484e-01
1.816242337226867676e-01
-1.076612170436419547e-05
2.124688774347305298e-01
-1.985332928597927094e-04
1.412496566772460938e-01
2.658812701702117920e-01
-2.658546691236551851e-05
-5.138356937095522881e-05
-1.869030893431045115e-05
1.553571671247482300e-01
1.494033038616180420e-01
1.866210848093032837e-01
1.431415528059005737e-01
1.387847078149206936e-05
1.457413136959075928e-01
1.596921831369400024e-01
1.465390324592590332e-01
2.726788520812988281e-01
-8.836453343974426389e-05
-3.170845157001167536e-04
-5.986498217680491507e-05
5.478083039633929729e-06
1.838906109333038330e-01
-3.793145879171788692e-06
-2.297751052537932992e-06
2.118660360574722290e-01
1.949450224637985229e-01
1.579376757144927979e-01
-3.564417420420795679e-05
1.003316501737572253e-04
-8.301514026243239641e-05
1.919668912887573242e-01
2.360559105873107910e-01
1.530347466468811035e-01
-8.393092139158397913e-05
-4.340636951383203268e-05
1.432789713144302368e-01
-3.903240576619282365e-05
-6.119204044807702303e-05
1.283170729875564575e-01
1.556476503610610962e-01
-2.686458174139261246e-06
2.499789744615554810e-01
1.208801046013832092e-01
2.056105881929397583e-01
-5.581638470175676048e-05
1.916087120771408081e-01
1.606564819812774658e-01
2.040718048810958862e-01
-1.395660219714045525e-04
1.411475390195846558e-01
1.414584964513778687e-01
-3.588707477319985628e-05
-7.038563489913940430e-05
1.613256245036609471e-05
-1.320312730967998505e-04
1.007763275993056595e-04
5.824448817293159664e-05
-7.949973223730921745e-05
1.947066485881805420e-01
1.721187382936477661e-01
-4.038750194013118744e-05
1.408619433641433716e-01
1.146658584475517273e-01
-1.368853263556957245e-04
1.403529313392937183e-05
1.221281141042709351e-01
5.757836333941668272e-06
1.266067773103713989e-01
2.096914649009704590e-01
-4.059161801706068218e-05
1.039123962982557714e-04
2.267768234014511108e-01
1.543094813823699951e-01
1.427220553159713745e-01
3.354398906230926514e-01
2.093702554702758789e-01
1.982079148292541504e-01
1.100155115127563477e-01
1.671455651521682739e-01
5.044220233685337007e-05
2.131766825914382935e-01
1.433746665716171265e-01
1.959208995103836060e-01
1.759089082479476929e-01
2.662261128425598145e-01
-6.471943197539076209e-05
1.761736639309674501e-04
3.970863690483383834e-05
1.357666105031967163e-01
8.398832869715988636e-05
-1.663261064095422626e-04
1.654236763715744019e-01
-1.084943942259997129e-04
1.524336636066436768e-01
-6.984177161939442158e-06
1.157541051506996155e-01
1.668001264333724976e-01
9.910021617542952299e-05
2.714387178421020508e-01
-2.281325432704761624e-04
7.920837379060685635e-05
1.990177333354949951e-01
1.534654647111892700e-01
1.356431312160566449e-06
1.976625323295593262e-01
1.418756544589996338e-01
-3.052290412597358227e-05
1.852230131626129150e-01
5.460908141685649753e-05
1.386085599660873413e-01
1.339534670114517212e-01
-2.570626747910864651e-05
1.680888533592224121e-01
5.820133810630068183e-05
1.709531098604202271e-01
-1.262413206859491765e-05
6.538098386954516172e-05
-5.950657396169845015e-06
-1.675573730608448386e-05
1.235666796565055847e-01
2.008614683290943503e-05
-2.966618922073394060e-04
2.562037843745201826e-05
7.024693331914022565e-05
1.773925125598907471e-01
1.901067793369293213e-01
2.045853883028030396e-01
4.997857831767760217e-05
2.802694737911224365e-01
3.063335120677947998e-01
-6.270650919759646058e-05
-3.852973895845934749e-05
7.879339682403951883e-05
1.469756811857223511e-01
1.933767944574356079e-01
2.491988986730575562e-01
7.505382382078096271e-05
1.598149836063385010e-01
1.402399986982345581e-01
1.676605492830276489e-01
1.568932533264160156e-01
7.766779162921011448e-05
2.403352260589599609e-01
1.903239786624908447e-01
2.292702198028564453e-01
-2.842748290277086198e-05
-2.669512105057947338e-05
1.498288214206695557e-01
7.880968951212707907e-06
-9.247639536624774337e-05
1.823403388261795044e-01
1.813362389802932739e-01
2.591111361980438232e-01
1.196881607174873352e-01
1.820413619279861450e-01
1.375621259212493896e-01
1.700842529535293579e-01
2.345636487007141113e-01
4.933115997118875384e-05
1.196635216474533081e-01
2.345868945121765137e-01
-1.323482320003677160e-05
-1.826607476687058806e-04
1.130880191922187805e-01
1.821980923414230347e-01
2.148704677820205688e-01
1.875573396682739258e-01
1.300248056650161743e-01
1.932007074356079102e-01
1.804578900337219238e-01
4.270172212272882462e-05
2.700847685337066650e-01
2.274132370948791504e-01
9.642909571994096041e-05
7.886964885983616114e-05
1.585825979709625244e-01
1.355178356170654297e-01
5.120380956213921309e-05
