9.879377484321594238e-02 1.505115032196044922e-01 -1.454727947711944580e-01 7.406113296747207642e-02 5.153435841202735901e-02 -8.350615098606795073e-05 1.845509558916091919e-02 -6.102589890360832214e-02 -9.688473492860794067e-02 -7.857728004455566406e-02 -6.948827207088470459e-02 8.017010241746902466e-02 -3.175476740580052137e-04 1.160739585757255554e-01 -1.259891837835311890e-01 7.196603715419769287e-02 1.493767946958541870e-01 2.582010813057422638e-02 -1.285935938358306885e-02 1.657596230506896973e-02 -1.389931887388229370e-01 -1.584572196006774902e-01 -1.414936184883117676e-01 -6.168743968009948730e-02 -1.555309295654296875e-01 1.077701300382614136e-01 -1.261264830827713013e-01 5.203970707952976227e-03 -1.670710891485214233e-01 -9.011241048574447632e-02 1.341081112623214722e-01 2.529369853436946869e-02
3.135185316205024719e-02 1.442607194185256958e-01 -2.024553567171096802e-01 6.872685998678207397e-02 1.257406026124954224e-01 -1.585819125175476074e-01 -1.112846657633781433e-01 -2.131054177880287170e-02 -1.929069012403488159e-01 -1.376511454582214355e-01 -6.071206927299499512e-02 1.699904054403305054e-01 1.866627186536788940e-01 9.669610857963562012e-02 -1.447016745805740356e-01 1.576861888170242310e-01 3.019786998629570007e-02 -4.313271492719650269e-02 1.629140526056289673e-01 1.080760732293128967e-02 -1.744435727596282959e-01 -1.055028960108757019e-01 -3.279282152652740479e-02 -8.851014077663421631e-02 -8.519635349512100220e-02 1.627219468355178833e-01 -1.714887320995330811e-01 6.578215211629867554e-02 -1.841599345207214355e-01 -1.508041322231292725e-01 1.347765773534774780e-01 1.872371584177017212e-01
-1.062768027186393738e-01 -1.463830471038818359e-01 1.459202468395233154e-01 -1.025340557098388672e-01 -1.738495379686355591e-01 4.605039954185485840e-02 2.109620124101638794e-01 9.140745550394058228e-02 1.641147881746292114e-01 1.255280822515487671e-01 1.976341158151626587e-01 -1.640447080135345459e-01 -1.370849907398223877e-01 -2.185411602258682251e-01 6.416802108287811279e-02 -4.189306497573852539e-02 -1.520205009728670120e-02 1.128971427679061890e-01 -1.587507128715515137e-01 -1.648792177438735962e-01 8.976843953132629395e-02 1.796948313713073730e-01 1.929689571261405945e-02 1.667148470878601074e-01 1.447268724441528320e-01 -7.719901949167251587e-02 1.182180047035217285e-01 -1.636238098144531250e-01 8.132997900247573853e-02 1.477376967668533325e-01 -2.138553559780120850e-01 -2.984309941530227661e-02
-8.245480060577392578e-02 -8.394934120588004589e-04 8.137888461351394653e-02 -1.869099438190460205e-01 -1.756895780563354492e-01 1.935442686080932617e-01 1.933572143316268921e-01 1.309703439474105835e-01 1.782828569412231445e-01 1.134871914982795715e-01 1.080871373414993286e-01 -3.291353350505232811e-03 -3.739209100604057312e-02 -6.802669912576675415e-02 1.204116865992546082e-01 -4.656112194061279297e-02 -1.361627969890832901e-02 1.929132491350173950e-01 -3.264289349317550659e-02 -1.583050638437271118e-01 9.627331793308258057e-02 1.279661208391189575e-01 1.811845600605010986e-01 1.732478588819503784e-01 2.118889242410659790e-01 -6.390346586704254150e-02 8.750377595424652100e-02 -1.052685081958770752e-01 2.007703036069869995e-01 1.725216954946517944e-01 -1.354480721056461334e-02 -7.367210835218429565e-02
-1.781267523765563965e-01 -1.918670684099197388e-01 5.630557239055633545e-02 -1.515313535928726196e-01 -1.641972959041595459e-01 2.216147333383560181e-01 2.045570611953735352e-01 2.164212316274642944e-01 1.579039357602596283e-02 1.252503544092178345e-01 3.417628258466720581e-02 -1.426238268613815308e-01 -1.970469951629638672e-01 -1.981405019760131836e-01 2.187037020921707153e-01 -8.000033348798751831e-02 -1.323709189891815186e-01 6.384707987308502197e-02 -7.726989686489105225e-02 -2.148846536874771118e-01 1.413788795471191406e-01 1.016072183847427368e-01 1.427409797906875610e-01 2.186610698699951172e-01 1.701729446649551392e-01 -8.228205144405364990e-02 1.569544672966003418e-01 -1.017556712031364441e-01 1.030933931469917297e-01 2.043697796761989594e-02 -4.730048775672912598e-02 -1.554664969444274902e-01
1.517028212547302246e-01 1.539731472730636597e-01 -1.948803514242172241e-01 2.105614542961120605e-01 2.203028202056884766e-01 -3.616998344659805298e-02 -6.781832873821258545e-02 -7.823553681373596191e-02 -1.787255704402923584e-01 -1.578375995159149170e-01 -1.658727079629898071e-01 1.348317265510559082e-01 7.958367466926574707e-02 1.746223568916320801e-01 -1.941865980625152588e-01 1.374442595988512039e-02 6.767512857913970947e-02 -4.129868000745773315e-02 5.597259849309921265e-02 1.571261137723922729e-01 -9.954565763473510742e-02 -5.182345584034919739e-02 -9.659266471862792969e-02 -1.423136442899703979e-01 -2.144432961940765381e-01 1.822855696082115173e-02 -1.155016273260116577e-01 1.183750182390213013e-01 -1.995453238487243652e-01 -1.769604533910751343e-01 1.890703439712524414e-01 2.159625738859176636e-01
-9.166992455720901489e-02 -1.019492968916893005e-01 1.076501533389091492e-01 -1.959000080823898315e-01 -7.182526402175426483e-03 1.266322582960128784e-01 1.913136094808578491e-01 1.553066372871398926e-01 1.616921573877334595e-01 1.503525376319885254e-01 1.394991874694824219e-01 -5.739241838455200195e-03 -2.501918934285640717e-02 -1.163205355405807495e-01 9.869077242910861969e-03 6.883528083562850952e-03 -8.720625936985015869e-02 1.863202005624771118e-01 -1.829664111137390137e-01 9.229611605405807495e-03 1.185415461659431458e-01 7.408945262432098389e-02 1.972505748271942139e-01 5.551940202713012695e-02 -2.368345391005277634e-03 -5.491930991411209106e-02 1.607422381639480591e-01 -6.525211781263351440e-02 1.937360167503356934e-01 1.657400280237197876e-01 -4.805393144488334656e-02 -1.702596545219421387e-01
6.369274342432618141e-04 -1.153595522046089172e-01 1.480928808450698853e-01 -6.755550950765609741e-02 -5.631174147129058838e-02 3.688368201255798340e-02 1.812402456998825073e-01 1.230636760592460632e-01 4.324254021048545837e-02 1.744318306446075439e-01 1.629268229007720947e-01 -1.258657425642013550e-01 -1.435337066650390625e-01 -1.345269102603197098e-02 1.250342279672622681e-01 -1.386458277702331543e-01 -8.939730376005172729e-02 -1.284024585038423538e-02 -9.726150333881378174e-02 -1.686817407608032227e-02 1.432622373104095459e-01 1.678825169801712036e-01 1.743548065423965454e-01 1.572260111570358276e-01 1.039342302829027176e-02 8.157785050570964813e-03 1.794143170118331909e-01 -1.474998444318771362e-01 3.343281894922256470e-02 1.133097782731056213e-01 -1.633362025022506714e-01 -1.494760066270828247e-01
2.968154847621917725e-02 8.794568479061126709e-02 -1.214618682861328125e-01 1.560398936271667480e-01 1.185999810695648193e-01 -3.977439180016517639e-02 -8.675023168325424194e-02 -1.607911139726638794e-01 -1.987812519073486328e-01 -2.100117057561874390e-01 -1.646036505699157715e-01 1.530634015798568726e-01 9.745676070451736450e-02 8.658313751220703125e-02 -1.240961104631423950e-01 1.152524277567863464e-01 1.656636595726013184e-01 -1.097554340958595276e-01 2.756959013640880585e-02 7.921827584505081177e-02 -1.714342832565307617e-02 -5.345213040709495544e-02 -1.079789921641349792e-01 -3.415936604142189026e-02 -1.258882433176040649e-01 1.882611513137817383e-01 -1.646910905838012695e-01 1.010403335094451904e-01 -5.215722322463989258e-02 -1.666532307863235474e-01 1.167600527405738831e-01 1.166435796767473221e-02
-8.184159547090530396e-02 -1.841131597757339478e-01 4.702546447515487671e-02 5.107422359287738800e-03 -7.178787142038345337e-02 1.239642575383186340e-01 6.279104389250278473e-03 6.896391510963439941e-02 1.281833499670028687e-01 1.952577829360961914e-01 1.812272220849990845e-01 -1.704721599817276001e-01 -5.786810442805290222e-02 -1.619249433279037476e-01 5.624679103493690491e-02 -1.287317126989364624e-01 -8.541041612625122070e-02 1.098921224474906921e-01 -1.823500357568264008e-02 -3.576696291565895081e-02 1.352149844169616699e-01 3.944291919469833374e-02 1.634828299283981323e-01 1.486848145723342896e-01 6.027615070343017578e-02 -4.975228011608123779e-02 1.197463050484657288e-01 -1.348526924848556519e-01 6.380132585763931274e-02 6.217744667083024979e-03 -8.369790017604827881e-02 -8.017259091138839722e-02
-1.056458801031112671e-01 -1.411424279212951660e-01 9.261921793222427368e-02 -1.062391772866249084e-01 -9.530031681060791016e-02 3.670254722237586975e-02 6.622304674237966537e-03 1.688624918460845947e-01 1.611324548721313477e-01 6.324663758277893066e-02 1.416249424219131470e-01 -5.986083298921585083e-02 -1.253038197755813599e-01 -1.641924083232879639e-01 9.849748760461807251e-02 -1.618365347385406494e-01 -4.574009031057357788e-02 4.452076554298400879e-02 -5.861905217170715332e-02 -1.085020303726196289e-01 1.782287061214447021e-01 1.699205040931701660e-01 1.470532715320587158e-01 1.136895790696144104e-01 9.041390568017959595e-02 -7.317050360143184662e-03 1.734675616025924683e-01 -9.475080668926239014e-02 9.243543446063995361e-02 1.645857281982898712e-02 -1.724768579006195068e-01 -9.912518411874771118e-02
1.772724092006683350e-01 1.684230268001556396e-01 -1.892648488283157349e-01 1.230587959289550781e-01 5.444683879613876343e-02 -1.578697860240936279e-01 -1.336484253406524658e-01 -1.324042230844497681e-01 -1.426635682582855225e-01 -7.943189889192581177e-02 -1.783823966979980469e-01 1.354612559080123901e-01 1.139157861471176147e-01 1.279806345701217651e-01 -6.609107553958892822e-02 1.114131733775138855e-01 1.884849369525909424e-01 -9.297097474336624146e-02 1.336266100406646729e-01 4.749196115881204605e-03 -1.704807430505752563e-01 -1.962366998195648193e-01 -1.115454211831092834e-01 -1.946073770523071289e-01 -3.616344649344682693e-03 4.919220134615898132e-02 -1.092596575617790222e-01 2.042018622159957886e-01 -1.526013854891061783e-02 -1.658717170357704163e-03 1.435806751251220703e-01 1.918195188045501709e-01
-3.046485036611557007e-02 -1.082268059253692627e-01 1.198114082217216492e-02 -8.837486058473587036e-02 -1.601125448942184448e-01 1.902123689651489258e-01 -1.764126121997833252e-02 5.494596809148788452e-02 7.371605932712554932e-02 7.406077533960342407e-02 9.801851212978363037e-02 -9.600707329809665680e-03 -4.538580402731895447e-02 -8.125458657741546631e-02 1.201193407177925110e-01 -6.174842640757560730e-02 -1.804244369268417358e-01 -1.457000337541103363e-02 -9.913367778062820435e-02 -1.285803765058517456e-01 1.814772337675094604e-01 1.714524626731872559e-01 1.420308053493499756e-01 1.792238056659698486e-01 2.009889297187328339e-02 -3.744842484593391418e-02 -8.949142880737781525e-03 -7.083059102296829224e-02 1.876201778650283813e-01 1.327786892652511597e-01 -4.201464354991912842e-02 -1.475589275360107422e-01
1.246948391199111938e-01 1.360913068056106567e-01 -1.527784205973148346e-02 6.601996719837188721e-02 6.865626573562622070e-02 -7.776159793138504028e-02 -7.540010660886764526e-02 -1.624097377061843872e-01 -1.020607054233551025e-01 -9.172345697879791260e-02 -1.011366546154022217e-01 1.475118100643157959e-01 2.543926239013671875e-02 1.491235792636871338e-01 -1.229445710778236389e-01 2.301168069243431091e-02 4.897761717438697815e-02 -1.634145826101303101e-01 4.025305062532424927e-02 3.266266733407974243e-02 -2.031686343252658844e-02 -9.837286174297332764e-02 -1.464189440011978149e-01 -9.857010096311569214e-03 -1.828166693449020386e-01 2.549456804990768433e-02 -1.645127534866333008e-01 1.046543568372726440e-01 -1.337846815586090088e-01 -1.466270070523023605e-02 1.738210022449493408e-01 1.275840699672698975e-01
1.973168924450874329e-02 -2.810086868703365326e-02 -5.453377962112426758e-03 -1.794704347848892212e-01 1.654238556511700153e-03 1.220378205180168152e-01 1.210071817040443420e-01 5.808016285300254822e-02 1.368077546358108521e-01 1.113576740026473999e-01 3.885812312364578247e-02 1.896143518388271332e-02 -6.422730535268783569e-02 -6.445058435201644897e-02 6.998044252395629883e-02 -1.577592790126800537e-01 -6.752139329910278320e-02 1.331031601876020432e-02 -1.397317200899124146e-01 -1.451085358858108521e-01 1.395323686301708221e-02 1.331126987934112549e-01 6.487107276916503906e-02 1.229613497853279114e-01 -1.143071614205837250e-02 -1.340313255786895752e-01 9.821943193674087524e-02 2.890053763985633850e-02 1.263212412595748901e-02 2.435067668557167053e-02 -7.086401432752609253e-02 7.071143481880426407e-04
1.246930733323097229e-01 2.613285789266228676e-03 -4.931199923157691956e-02 8.808668702840805054e-02 1.995827108621597290e-01 -1.978358030319213867e-01 1.112858299165964127e-02 -4.485572502017021179e-02 -1.522751003503799438e-01 -1.434073746204376221e-01 -1.838795393705368042e-01 1.438705325126647949e-01 1.913802325725555420e-01 6.951559334993362427e-02 -9.316479414701461792e-02 1.478005796670913696e-01 5.639827623963356018e-02 -3.479799488559365273e-03 9.323871880769729614e-02 6.195191666483879089e-02 -8.964455127716064453e-02 -1.203736290335655212e-01 -1.262541115283966064e-01 -9.540674835443496704e-02 -1.971974968910217285e-02 1.817784905433654785e-01 -1.712789982557296753e-01 1.322369724512100220e-01 -1.069309413433074951e-01 -1.362520605325698853e-01 2.529995888471603394e-02 1.898899972438812256e-01
-1.983551234006881714e-01 -2.019363045692443848e-01 2.072154581546783447e-01 -5.705916881561279297e-02 -1.443142294883728027e-01 1.444314271211624146e-01 1.726422160863876343e-01 1.349991559982299805e-01 1.460213959217071533e-01 1.291099935770034790e-01 3.205813840031623840e-02 -1.988629102706909180e-01 -1.076069548726081848e-01 -1.607613265514373779e-01 5.740210041403770447e-02 -3.643601760268211365e-02 -1.074095144867897034e-01 1.088712438941001892e-01 -2.077376395463943481e-01 -8.309748768806457520e-02 1.749495267868041992e-01 4.523260891437530518e-02 6.252972036600112915e-02 2.296917289495468140e-01 1.509917974472045898e-01 -6.722988188266754150e-02 1.770746707916259766e-01 -6.353157013654708862e-02 1.259858310222625732e-01 2.169545888900756836e-01 -2.080400437116622925e-01 -1.596867591142654419e-01
-6.267771869897842407e-02 -6.932538002729415894e-02 1.460452973842620850e-01 1.930670812726020813e-03 -9.079222381114959717e-02 1.577610224485397339e-01 1.352815926074981689e-01 1.316875815391540527e-01 9.777084738016128540e-02 1.455692499876022339e-01 1.460947692394256592e-01 -1.195400431752204895e-01 -1.929371356964111328e-01 -1.542302817106246948e-01 1.805593259632587433e-02 -1.443800032138824463e-01 -1.170595586299896240e-01 8.770873397588729858e-02 -1.786436736583709717e-01 -3.418537974357604980e-02 1.272245347499847412e-01 1.036439239978790283e-01 4.220108687877655029e-02 2.888751775026321411e-02 2.652960643172264099e-02 -2.001210004091262817e-01 1.338614076375961304e-01 -1.659982651472091675e-01 7.541875820606946945e-03 2.051625587046146393e-02 -3.204221278429031372e-02 -1.161831542849540710e-01
-5.311124958097934723e-03 -1.525671482086181641e-01 8.843425894156098366e-04 -1.408194899559020996e-01 -1.084112678654491901e-03 2.750337682664394379e-02 1.521006375551223755e-01 1.265019923448562622e-02 1.189137026667594910e-01 1.111562922596931458e-01 1.078792735934257507e-01 -1.191771477460861206e-01 -6.031794846057891846e-02 -9.961260110139846802e-02 1.057245284318923950e-01 -1.802734136581420898e-01 -1.638167202472686768e-01 3.061300143599510193e-02 -1.124936416745185852e-01 -1.558401733636856079e-01 1.044952049851417542e-01 7.425534725189208984e-02 1.501388251781463623e-01 8.219724148511886597e-02 1.669993847608566284e-01 -1.220510601997375488e-01 -1.459301449358463287e-02 -1.984353810548782349e-01 2.180852741003036499e-02 4.750036820769309998e-02 -1.005663648247718811e-01 -2.399065531790256500e-02
8.378195576369762421e-03 -1.552225053310394287e-01 8.057517558336257935e-02 -7.439900934696197510e-02 -1.706280708312988281e-01 7.352733612060546875e-02 1.360394358634948730e-01 8.588519692420959473e-02 2.467857673764228821e-02 4.808394238352775574e-03 4.473818838596343994e-02 -1.085093319416046143e-01 -1.861641108989715576e-01 -1.799480020999908447e-01 5.096341297030448914e-02 -1.242762580513954163e-01 -1.537284255027770996e-01 -7.000041659921407700e-03 -8.500619232654571533e-02 -1.880985647439956665e-01 1.483884751796722412e-01 1.450795382261276245e-01 1.399204432964324951e-01 2.765162847936153412e-02 1.553329378366470337e-01 -1.718561165034770966e-02 1.490991711616516113e-01 -6.918431818485260010e-02 3.389491513371467590e-02 3.615683317184448242e-02 -1.412932574748992920e-01 -8.346879854798316956e-03
3.018138743937015533e-02 1.534266024827957153e-01 -2.008652687072753906e-01 1.453425735235214233e-01 9.301246702671051025e-02 -1.103178597986698151e-02 -3.745144605636596680e-02 -1.614654660224914551e-01 -1.091295629739761353e-01 -8.542624861001968384e-02 -2.764708362519741058e-02 1.932935863733291626e-01 8.247008919715881348e-02 1.688834577798843384e-01 -6.651843339204788208e-02 1.948022246360778809e-01 5.160089582204818726e-02 -1.269111186265945435e-01 1.967290639877319336e-01 1.759440302848815918e-01 -6.791797280311584473e-02 -9.006249904632568359e-02 -6.410948187112808228e-02 -1.816864907741546631e-01 -7.739131897687911987e-02 2.524080686271190643e-02 -1.903703957796096802e-01 8.484876155853271484e-02 -1.998158246278762817e-01 -2.287813648581504822e-02 8.422020822763442993e-02 1.564944982528686523e-01
2.188169360160827637e-01 1.050878092646598816e-01 -4.444466903805732727e-02 1.134461238980293274e-01 1.983363628387451172e-01 -7.135846465826034546e-02 -1.266747564077377319e-01 -1.636511981487274170e-01 -1.266593039035797119e-01 -1.327199190855026245e-01 -1.798322051763534546e-01 1.785414069890975952e-01 1.429607570171356201e-01 1.225857287645339966e-01 -3.482457622885704041e-02 7.381365448236465454e-02 1.740341186523437500e-01 -3.734260052442550659e-02 3.364297747611999512e-02 1.284997444599866867e-02 -2.141065001487731934e-01 -3.265164420008659363e-02 -7.564557343721389771e-02 -6.700336933135986328e-02 -1.750453561544418335e-01 3.705903887748718262e-02 -1.054782867431640625e-01 7.305230945348739624e-02 -6.880207359790802002e-02 -2.121397107839584351e-01 1.181510388851165771e-01 1.790399104356765747e-01
1.735831052064895630e-02 1.129635050892829895e-02 -3.846659511327743530e-02 2.033154368400573730e-01 6.367845833301544189e-02 -1.806734204292297363e-01 -4.527242109179496765e-02 -1.433083564043045044e-01 -1.433643102645874023e-01 -1.163606345653533936e-01 -1.176117807626724243e-01 1.928784698247909546e-01 6.414394080638885498e-02 1.025239825248718262e-01 -2.050438970327377319e-01 1.090609002858400345e-02 1.644997149705886841e-01 -1.159741654992103577e-01 4.920546710491180420e-02 1.704191118478775024e-01 -1.977396905422210693e-01 -3.167046234011650085e-02 -1.006683111190795898e-01 -1.170475333929061890e-01 -6.196971610188484192e-02 1.031032279133796692e-01 -1.535612791776657104e-01 1.832483112812042236e-01 -1.119242459535598755e-01 -1.609435230493545532e-01 1.855918765068054199e-01 2.605494111776351929e-02
6.686545908451080322e-02 2.927655167877674103e-02 -5.066053941845893860e-03 9.759109467267990112e-02 8.033122122287750244e-02 -7.845696806907653809e-02 -8.362567424774169922e-02 -1.368891745805740356e-01 -4.287642240524291992e-02 -1.006050407886505127e-01 -6.836871057748794556e-02 1.534304916858673096e-01 1.763395518064498901e-01 1.397548615932464600e-01 -1.482174843549728394e-01 9.382098168134689331e-02 1.629188060760498047e-01 -1.399525403976440430e-01 5.804050341248512268e-02 8.202938735485076904e-02 -4.658496007323265076e-02 2.003697864711284637e-02 -1.067674383521080017e-01 -1.564502716064453125e-01 -6.353627145290374756e-02 3.529899567365646362e-02 9.914031252264976501e-03 -1.122288312762975693e-02 -1.567487418651580811e-01 -1.533040106296539307e-01 9.291413240134716034e-03 7.808662950992584229e-02
1.960473060607910156e-01 1.064198464155197144e-01 -6.879346817731857300e-02 1.282193511724472046e-01 4.135195538401603699e-02 -1.577973067760467529e-01 -1.544705629348754883e-01 -3.149786219000816345e-02 -8.553389459848403931e-02 -1.641284823417663574e-01 -1.334508806467056274e-01 1.026430353522300720e-01 6.108964979648590088e-02 2.003809995949268341e-02 -1.740815937519073486e-01 1.069963797926902771e-01 1.708369553089141846e-01 -1.170121058821678162e-01 9.993652999401092529e-02 8.115580677986145020e-02 -1.782131493091583252e-01 -8.967082947492599487e-03 -8.746729046106338501e-02 -1.568026393651962280e-01 -1.164362952113151550e-01 1.520411670207977295e-01 -7.820626348257064819e-02 4.388104379177093506e-02 -1.622560173273086548e-01 -5.014470219612121582e-02 2.428218722343444824e-02 1.475760489702224731e-01
1.199390646070241928e-02 1.830181628465652466e-01 -1.256140470504760742e-01 7.708693295717239380e-02 1.284544020891189575e-01 -1.200084164738655090e-01 -1.483167707920074463e-01 -4.851654917001724243e-02 -4.641251266002655029e-02 -1.806794553995132446e-01 -1.548768114298582077e-02 1.408609598875045776e-01 1.757048070430755615e-01 2.772741019725799561e-02 -9.038410335779190063e-02 9.999575465917587280e-02 1.456968337297439575e-01 -1.809689402580261230e-01 1.559620797634124756e-01 -1.239695213735103607e-02 -4.278663918375968933e-02 -1.490445286035537720e-01 -1.419144123792648315e-01 -1.215999051928520203e-01 -1.865415871143341064e-01 6.321743130683898926e-02 -6.274302303791046143e-02 2.972330525517463684e-02 -1.588040441274642944e-01 -3.030038811266422272e-02 1.724960207939147949e-01 3.245241194963455200e-02
-8.906059712171554565e-02 -4.101214930415153503e-02 1.945127919316291809e-02 -1.894152462482452393e-01 -3.665850311517715454e-02 -1.215806463733315468e-03 5.318128690123558044e-02 -1.032575685530900955e-02 1.008094847202301025e-01 1.341028809547424316e-01 1.028074882924556732e-02 -6.803861260414123535e-02 -1.050506457686424255e-01 -6.010728329420089722e-02 9.025244414806365967e-02 -1.680709719657897949e-01 -1.578237414360046387e-01 1.268825680017471313e-01 -1.383193731307983398e-01 -9.543845802545547485e-02 1.851935982704162598e-01 1.044867634773254395e-01 7.596044242382049561e-02 9.343757480382919312e-02 1.107618361711502075e-01 -7.583919167518615723e-02 5.453517660498619080e-02 -1.361864153295755386e-02 1.376324594020843506e-01 2.920029219239950180e-03 -1.521653980016708374e-01 -1.546774208545684814e-01
-1.654039174318313599e-01 -7.908501476049423218e-02 2.804115787148475647e-02 -2.691838331520557404e-02 -1.447504013776779175e-01 2.078734487295150757e-01 5.522272363305091858e-02 9.449345618486404419e-02 1.627957969903945923e-01 2.657552994787693024e-02 1.281063258647918701e-01 -1.860700994729995728e-01 -1.591990888118743896e-01 -7.917329668998718262e-02 7.581043988466262817e-02 -1.453828904777765274e-02 -1.386415511369705200e-01 1.718291789293289185e-01 -1.457053720951080322e-01 -1.713948249816894531e-01 1.875270456075668335e-01 7.527623325586318970e-02 4.839259013533592224e-02 1.861345209181308746e-02 8.128461241722106934e-02 -1.075267139822244644e-02 2.066219449043273926e-01 -1.970555819571018219e-02 1.104266941547393799e-01 5.212912335991859436e-02 -1.945268958806991577e-01 -8.796403557062149048e-02
-1.863453686237335205e-01 -5.419161170721054077e-02 2.091200649738311768e-02 -1.950089931488037109e-01 -1.381396651268005371e-01 1.730655580759048462e-01 5.090022459626197815e-02 1.874344646930694580e-01 1.820349544286727905e-01 1.786144822835922241e-01 3.258393332362174988e-02 -4.243601858615875244e-02 -5.347035080194473267e-02 -1.946527063846588135e-01 1.661140173673629761e-01 -1.656307578086853027e-01 -9.408792853355407715e-02 1.760412007570266724e-01 -1.574868336319923401e-02 -9.535305947065353394e-02 5.163957551121711731e-02 4.824524372816085815e-02 4.835441708564758301e-02 2.812776155769824982e-02 2.733192220330238342e-02 -1.254082024097442627e-01 -7.654436863958835602e-03 -1.509367674589157104e-01 2.855194173753261566e-02 -3.276276169344782829e-03 -1.017856374382972717e-01 -1.424115598201751709e-01
-4.699163138866424561e-02 -4.969827085733413696e-02 1.277550607919692993e-01 -4.278912674635648727e-03 -1.427634358406066895e-01 1.266665011644363403e-01 9.223505854606628418e-02 1.079354882240295410e-01 5.010783672332763672e-02 1.519976705312728882e-01 1.831336915493011475e-01 8.645213209092617035e-03 -6.208992749452590942e-02 -1.823173910379409790e-01 1.769872847944498062e-03 -1.686371117830276489e-01 -1.197743192315101624e-01 6.017513945698738098e-02 -5.598041787743568420e-02 -1.336220651865005493e-01 1.568622440099716187e-01 1.221975237131118774e-01 1.515422910451889038e-01 1.055218577384948730e-01 5.661237612366676331e-02 -3.217837586998939514e-02 4.298316314816474915e-02 -1.403689235448837280e-01 2.186292083933949471e-03 1.837658733129501343e-01 -1.077892258763313293e-01 -9.768158942461013794e-02
-1.465456187725067139e-01 -1.753997057676315308e-01 3.385153040289878845e-02 -2.044260948896408081e-01 -1.751855909824371338e-01 1.679631322622299194e-01 1.884380728006362915e-01 3.176409751176834106e-02 1.568026691675186157e-01 7.869655638933181763e-02 2.074673324823379517e-01 -5.785596370697021484e-02 -1.210835501551628113e-01 -1.774254590272903442e-01 3.265041112899780273e-02 -1.556868553161621094e-01 -3.700570389628410339e-02 1.955172419548034668e-01 -1.050702333450317383e-01 -3.715760260820388794e-02 6.611843407154083252e-02 1.648364961147308350e-01 1.785149872303009033e-01 6.841459125280380249e-02 2.051045447587966919e-01 -2.275006771087646484e-01 5.605109781026840210e-02 -5.141831561923027039e-02 1.032395437359809875e-01 1.818519234657287598e-01 -9.062207490205764771e-02 -2.140537202358245850e-01
3.132209554314613342e-02 1.477150022983551025e-01 -1.748492196202278137e-02 1.957592368125915527e-01 1.709812879562377930e-02 -1.002862006425857544e-01 -6.405808776617050171e-02 -8.138708770275115967e-03 -9.045775979757308960e-03 -1.407556682825088501e-01 -1.990199536085128784e-01 7.878666371107101440e-02 1.390464603900909424e-01 1.721486300230026245e-01 -1.557264626026153564e-01 8.663135021924972534e-02 9.440404921770095825e-02 -1.541497558355331421e-01 1.340122669935226440e-01 1.053341627120971680e-01 -1.381761729717254639e-01 -1.417400836944580078e-01 -4.492960125207901001e-02 -6.456302851438522339e-02 -1.617035418748855591e-01 9.026069194078445435e-02 -2.771290391683578491e-02 1.561630815267562866e-01 -1.586938202381134033e-01 -6.058378145098686218e-02 1.747075468301773071e-01 1.671613007783889771e-01
-2.762796543538570404e-02 -1.871760934591293335e-01 1.682804822921752930e-01 -2.036722898483276367e-01 -1.647600978612899780e-01 1.347148865461349487e-01 1.805652230978012085e-01 1.891767382621765137e-01 1.455798894166946411e-01 2.123810350894927979e-01 1.149133518338203430e-01 -1.593441963195800781e-01 -6.250863522291183472e-02 -1.651327908039093018e-01 1.570980250835418701e-01 -6.562171131372451782e-02 -1.106230169534683228e-01 2.061882466077804565e-01 -2.121020704507827759e-01 -8.310558646917343140e-02 1.368089467287063599e-01 1.977448612451553345e-01 1.717982888221740723e-01 8.392952382564544678e-02 9.930813312530517578e-02 -3.005285561084747314e-02 9.626230597496032715e-02 -2.066691964864730835e-01 1.657983511686325073e-01 2.077254951000213623e-01 -1.030272319912910461e-01 -1.349552720785140991e-01
-1.551436036825180054e-01 -1.611024956218898296e-03 8.549693226814270020e-02 -6.732233613729476929e-02 -2.500462159514427185e-02 1.155479848384857178e-01 1.902354210615158081e-01 1.326967328786849976e-01 1.821633428335189819e-01 1.231221184134483337e-01 1.833189837634563446e-02 -4.961323365569114685e-02 -1.331270784139633179e-01 -1.068300902843475342e-01 1.008403003215789795e-01 -8.624236285686492920e-02 -1.674295216798782349e-01 1.560381799936294556e-01 -1.300610899925231934e-01 -1.328966468572616577e-01 9.549281001091003418e-02 1.014527380466461182e-01 5.017859861254692078e-02 9.364536404609680176e-02 1.051971539855003357e-01 -2.752718143165111542e-02 6.178183481097221375e-02 -4.865881055593490601e-02 2.039679437875747681e-01 6.037840992212295532e-02 -1.077907755970954895e-01 -1.539957970380783081e-01
-1.425803154706954956e-01 -1.386833637952804565e-01 1.480463147163391113e-01 -1.028737053275108337e-01 -2.330749928951263428e-01 6.800991296768188477e-02 1.090248599648475647e-01 1.267096698284149170e-01 1.290878802537918091e-01 1.647921800613403320e-01 4.519819095730781555e-02 -2.255990356206893921e-01 -1.655259132385253906e-01 -1.432145684957504272e-01 1.047932654619216919e-01 -1.582545191049575806e-01 -1.136943548917770386e-01 8.417270332574844360e-02 -1.670210957527160645e-01 -5.100516602396965027e-02 1.538668274879455566e-01 1.352063268423080444e-01 4.990608245134353638e-02 2.411357499659061432e-02 1.408035457134246826e-01 -1.685924381017684937e-01 1.905683428049087524e-01 -4.105394333600997925e-02 1.200979948043823242e-01 1.810904592275619507e-01 -1.303665786981582642e-01 -1.654351800680160522e-01
1.944506168365478516e-01 1.278129816055297852e-01 -7.229005545377731323e-02 1.809298545122146606e-01 1.050623431801795959e-01 -6.349515169858932495e-02 -1.709568053483963013e-01 -5.769015476107597351e-02 -3.425164520740509033e-02 -2.294596284627914429e-02 -1.236957460641860962e-01 5.723386630415916443e-02 -1.394618768244981766e-02 1.480640172958374023e-01 -3.143209964036941528e-02 1.956239044666290283e-01 4.454686492681503296e-02 -9.848457574844360352e-02 -5.015495698899030685e-03 1.622593104839324951e-01 -1.479366421699523926e-01 -1.928289681673049927e-01 -1.859844624996185303e-01 -1.450699567794799805e-01 -2.096667326986789703e-02 8.159245550632476807e-02 -1.862060427665710449e-01 5.543346330523490906e-02 -8.125262707471847534e-02 -1.540174037218093872e-01 1.378952711820602417e-01 1.697814464569091797e-01
-1.747475415468215942e-01 -1.920681744813919067e-01 9.993980079889297485e-02 -1.103144586086273193e-01 -1.733465939760208130e-01 8.475800603628158569e-02 1.304471641778945923e-01 1.368427425622940063e-01 1.042865961790084839e-01 1.856236755847930908e-01 1.266583353281021118e-01 -1.120895519852638245e-01 -6.634841859340667725e-02 -1.111713349819183350e-01 3.374719619750976562e-02 -4.210536554455757141e-02 -9.133414179086685181e-02 3.650324419140815735e-02 -1.536045372486114502e-01 -1.707496047019958496e-01 2.136294357478618622e-02 3.972157463431358337e-02 1.253423541784286499e-01 1.155047863721847534e-01 1.354580074548721313e-01 -1.182867810130119324e-01 5.367741733789443970e-02 -1.851355880498886108e-01 1.425896435976028442e-01 4.041023924946784973e-02 -1.190924048423767090e-01 -5.291219335049390793e-03
2.044531330466270447e-02 1.598584353923797607e-01 -4.748892039060592651e-02 1.376531273126602173e-01 -8.763107471168041229e-03 -3.179027140140533447e-02 -3.172670025378465652e-03 1.159770507365465164e-02 -1.712899357080459595e-01 -1.223431229591369629e-01 -1.561618298292160034e-01 1.475821733474731445e-01 3.132860362529754639e-02 1.245550364255905151e-01 -1.655450910329818726e-01 1.658190488815307617e-01 1.836003549396991730e-02 -1.219268143177032471e-01 1.633657813072204590e-01 1.269824504852294922e-01 -5.186858028173446655e-02 -1.776889413595199585e-01 3.420466091483831406e-03 -7.411675900220870972e-02 1.761851273477077484e-02 1.464164555072784424e-01 -7.036210596561431885e-02 1.297273486852645874e-01 -6.562016904354095459e-02 1.508984621614217758e-02 8.102019876241683960e-02 1.147673353552818298e-01
8.973746746778488159e-02 1.592508107423782349e-01 -1.187292039394378662e-01 5.770680680871009827e-02 3.871243819594383240e-02 1.488529797643423080e-02 -1.101944446563720703e-01 -5.054839700460433960e-02 -1.510100513696670532e-01 1.002134755253791809e-02 -5.626961961388587952e-02 1.443312019109725952e-01 1.462967693805694580e-01 -4.564908519387245178e-02 -1.557957231998443604e-01 4.944121092557907104e-02 1.324673295021057129e-01 -1.003332659602165222e-01 -7.142258808016777039e-03 1.435672789812088013e-01 -3.710226342082023621e-02 -1.517965942621231079e-01 -6.235801056027412415e-02 1.996302232146263123e-02 -1.581020466983318329e-02 6.417926400899887085e-02 4.000002145767211914e-02 1.054906174540519714e-01 -3.046639636158943176e-02 -1.147622540593147278e-01 8.527545630931854248e-02 9.803000092506408691e-02
-6.417259573936462402e-02 -7.417079806327819824e-02 1.503597050905227661e-01 -1.820802986621856689e-01 -1.218554154038429260e-01 2.711684815585613251e-02 1.262987703084945679e-01 6.158323213458061218e-02 1.885439641773700714e-02 1.187861487269401550e-01 -1.810135692358016968e-02 -6.796165555715560913e-02 -5.205522850155830383e-02 -1.667831540107727051e-01 2.011878602206707001e-02 -1.106118857860565186e-01 -1.491472125053405762e-01 7.995948195457458496e-02 -7.254625856876373291e-02 -1.639982312917709351e-01 -1.344153098762035370e-02 8.852647989988327026e-02 3.731439635157585144e-02 1.396310329437255859e-01 7.905633002519607544e-02 -1.875534951686859131e-01 1.586791425943374634e-01 -6.377170234918594360e-02 1.397652179002761841e-01 5.666446313261985779e-02 1.166832819581031799e-02 6.811603903770446777e-03
-1.160575523972511292e-01 -1.294166501611471176e-02 7.829991728067398071e-02 -1.609026789665222168e-01 -8.474428206682205200e-02 1.138288602232933044e-01 2.427669428288936615e-02 2.860379405319690704e-02 1.465722024440765381e-01 1.499108970165252686e-01 1.798032671213150024e-01 -1.407444775104522705e-01 -1.667357385158538818e-01 1.285411883145570755e-02 3.172124922275543213e-02 -2.950013056397438049e-02 -1.171174738556146622e-02 1.446424275636672974e-01 -1.484431922435760498e-01 -1.042273715138435364e-01 -1.475846208631992340e-02 1.160047054290771484e-01 3.304634615778923035e-02 1.308449357748031616e-02 1.671212166547775269e-01 -9.241271018981933594e-02 4.585889354348182678e-02 -1.528710722923278809e-01 7.259457558393478394e-02 2.839820645749568939e-02 -1.561523973941802979e-01 -1.546004563570022583e-01
-1.822191923856735229e-01 -7.213978469371795654e-02 7.230093330144882202e-02 -9.092026948928833008e-02 -2.110570222139358521e-01 2.089129388332366943e-01 1.295225173234939575e-01 4.917028546333312988e-02 1.859263032674789429e-01 1.607324630022048950e-01 1.179936975240707397e-01 -7.939518988132476807e-02 -2.044820934534072876e-01 -1.509631872177124023e-01 1.321026235818862915e-01 -2.060094475746154785e-01 -9.075517207384109497e-02 2.132902890443801880e-01 -9.218207746744155884e-02 -1.400517076253890991e-01 2.399154938757419586e-02 1.596803963184356689e-01 1.474015116691589355e-01 8.246322162449359894e-03 1.954858154058456421e-01 -8.329663425683975220e-02 1.842581480741500854e-01 -2.372975833714008331e-02 1.277965605258941650e-01 4.296464100480079651e-02 -2.106445282697677612e-01 -1.215841248631477356e-01
-1.305272281169891357e-01 -1.098708212375640869e-01 1.114398837089538574e-01 -1.325022876262664795e-01 -2.263230681419372559e-01 1.322575807571411133e-01 7.846708595752716064e-02 4.427091032266616821e-02 8.569339662790298462e-02 1.754511892795562744e-01 1.429059207439422607e-01 -8.115693926811218262e-02 -1.220196112990379333e-01 -6.495492160320281982e-02 1.939780712127685547e-01 -1.330689638853073120e-01 -1.698700785636901855e-01 1.357513666152954102e-01 -1.236912421882152557e-02 -1.975821852684020996e-01 4.139768332242965698e-02 1.761666536331176758e-01 7.226356118917465210e-02 1.591292470693588257e-01 3.831688314676284790e-02 -1.691379547119140625e-01 7.169020175933837891e-02 -1.708568781614303589e-01 1.453775167465209961e-01 1.080272272229194641e-01 -6.015991792082786560e-02 -2.178543508052825928e-01
1.149602979421615601e-01 2.295105606317520142e-01 -1.884975731372833252e-01 1.642776280641555786e-01 2.152229845523834229e-01 -6.406906247138977051e-02 -1.869467645883560181e-01 -1.407831013202667236e-01 -2.980567701160907745e-02 -2.950867637991905212e-02 -1.851785629987716675e-01 1.819150149822235107e-01 2.275505959987640381e-01 1.597219556570053101e-01 -1.776486039161682129e-01 1.742314249277114868e-01 1.633059680461883545e-01 -1.443842500448226929e-01 9.176620095968246460e-02 1.621927767992019653e-01 -1.901313662528991699e-01 -1.917424052953720093e-01 -2.045843750238418579e-01 -1.468283385038375854e-01 -2.259787917137145996e-01 1.975166797637939453e-01 -1.025992333889007568e-01 1.303082257509231567e-01 -2.018212378025054932e-01 -9.354396164417266846e-02 1.031980216503143311e-01 7.540908455848693848e-02
-1.193567812442779541e-01 -8.805990219116210938e-02 1.199441477656364441e-01 -1.054011434316635132e-01 -5.274711176753044128e-02 5.404201801866292953e-03 1.027962192893028259e-01 1.662986576557159424e-01 1.754189580678939819e-01 5.338925123214721680e-02 8.655018359422683716e-02 -1.849251836538314819e-01 -1.823433339595794678e-01 -1.264728158712387085e-01 7.231704890727996826e-02 -1.307359039783477783e-01 -1.544531136751174927e-01 -8.131279610097408295e-03 -3.064802102744579315e-02 4.667437169700860977e-03 2.598692663013935089e-02 -1.032214798033237457e-02 1.618505716323852539e-01 1.974871568381786346e-02 6.849035620689392090e-02 -6.609932333230972290e-02 6.229833886027336121e-02 -1.184953227639198303e-01 1.923144161701202393e-01 1.863830164074897766e-02 -7.182066142559051514e-02 1.305863168090581894e-02
-1.850270330905914307e-01 -6.495421379804611206e-02 1.460665464401245117e-01 -1.921110153198242188e-01 -1.956588476896286011e-01 5.476334691047668457e-02 5.797955766320228577e-02 2.322077937424182892e-02 3.346299752593040466e-02 1.786816418170928955e-01 1.905451565980911255e-01 -4.142599925398826599e-02 -5.190809816122055054e-02 -1.712167263031005859e-01 9.602006524801254272e-02 -1.912947893142700195e-01 -8.759484440088272095e-02 6.506962329149246216e-02 -1.620524376630783081e-01 -1.617084443569183350e-01 3.956340253353118896e-02 1.852794140577316284e-01 1.737526357173919678e-01 1.156164333224296570e-01 7.763054966926574707e-02 -6.775925308465957642e-02 8.709007501602172852e-02 -1.523384302854537964e-01 5.715679749846458435e-02 1.781449764966964722e-01 -1.709332168102264404e-01 -1.433066874742507935e-01
6.504981219768524170e-02 1.840781420469284058e-01 -1.257871985435485840e-01 1.374522130936384201e-02 3.225513175129890442e-02 -7.099740952253341675e-02 -2.028567790985107422e-01 -6.676866859197616577e-02 -1.427322328090667725e-01 -1.127915009856224060e-01 -1.621706783771514893e-01 1.932704150676727295e-01 3.640212118625640869e-03 3.438706323504447937e-02 -5.728277936577796936e-02 2.145657986402511597e-01 1.552649438381195068e-01 -7.233854383230209351e-03 3.771525621414184570e-02 1.195565909147262573e-01 -1.133351176977157593e-01 -1.810307241976261139e-02 -1.633862704038619995e-01 -5.210198834538459778e-02 -1.501149386167526245e-01 5.318778380751609802e-02 -5.118495970964431763e-02 5.878002941608428955e-02 -1.505712121725082397e-01 -2.005800157785415649e-01 1.585168242454528809e-01 1.577783077955245972e-01
7.912236452102661133e-02 5.763650313019752502e-02 -1.818696409463882446e-01 5.715700797736644745e-03 1.102947816252708435e-01 -3.967508673667907715e-02 -1.237289980053901672e-01 -1.999953240156173706e-01 -4.293396696448326111e-02 -6.166560109704732895e-03 -1.510588526725769043e-01 2.027362287044525146e-01 8.441837131977081299e-02 1.833852678537368774e-01 -1.333246007561683655e-02 1.432254612445831299e-01 4.726990684866905212e-02 -5.163023248314857483e-02 2.799833379685878754e-02 2.063406407833099365e-01 -1.285613775253295898e-01 -1.118915453553199768e-01 -1.422436684370040894e-01 -1.399460136890411377e-01 -7.010629773139953613e-02 1.977909803390502930e-01 -1.297248750925064087e-01 8.645517379045486450e-02 -1.887602359056472778e-02 -2.003019154071807861e-01 8.107024431228637695e-02 7.619202136993408203e-02
-1.749839037656784058e-01 -1.203530654311180115e-01 1.162909567356109619e-01 3.832083195447921753e-03 -8.335330337285995483e-02 9.944476932287216187e-02 4.712109267711639404e-02 3.087888704612851143e-03 1.855207085609436035e-01 1.977918595075607300e-01 4.103900492191314697e-02 -1.252475976943969727e-01 6.972900591790676117e-03 -1.015955135226249695e-01 7.852453738451004028e-02 -1.336489021778106689e-01 -1.205737143754959106e-01 1.468093972653150558e-02 -5.923041701316833496e-02 -1.182533148676156998e-02 1.045657843351364136e-01 1.665463149547576904e-01 9.788690507411956787e-02 5.183627083897590637e-02 1.122787296772003174e-01 -1.485998779535293579e-01 1.591952443122863770e-01 -1.691483557224273682e-01 5.960932746529579163e-02 9.579425095580518246e-04 -6.554494053125381470e-02 4.246944561600685120e-03
-1.541806757450103760e-01 -7.309126853942871094e-02 1.168603077530860901e-02 -1.686020195484161377e-01 -2.357980422675609589e-02 -1.280268770642578602e-03 1.195471957325935364e-01 7.365371286869049072e-02 9.655479341745376587e-02 2.185237221419811249e-02 7.999278604984283447e-02 -1.267421543598175049e-01 -1.264308691024780273e-01 -1.598012000322341919e-01 8.966952562332153320e-02 -1.079883500933647156e-01 -9.003170579671859741e-02 -8.471024222671985626e-03 -8.612159639596939087e-02 -1.376444250345230103e-01 1.498339772224426270e-01 3.743521403521299362e-03 1.224725097417831421e-01 1.063379272818565369e-02 1.157236099243164062e-01 -1.045235022902488708e-01 -1.034053321927785873e-02 -1.627775579690933228e-01 1.940684318542480469e-01 1.834635734558105469e-01 -1.556205451488494873e-01 -7.377417385578155518e-02
-1.089994832873344421e-01 -1.383731663227081299e-01 7.073825597763061523e-02 -5.157236009836196899e-02 -1.546460017561912537e-02 5.648943409323692322e-02 1.681020110845565796e-01 1.929153949022293091e-01 1.530953645706176758e-01 6.876375526189804077e-02 1.149396449327468872e-01 -1.721047163009643555e-01 -1.957641448825597763e-03 -4.117466881871223450e-02 1.182907894253730774e-01 -9.057918936014175415e-02 -1.092144697904586792e-01 -8.075414225459098816e-03 -9.488452225923538208e-02 -1.754893735051155090e-02 3.257591649889945984e-02 1.734896153211593628e-01 1.032127812504768372e-01 9.012831002473831177e-02 -8.108474314212799072e-03 -5.047194659709930420e-03 -1.261222641915082932e-02 -1.307879667729139328e-02 3.169716149568557739e-02 1.018107384443283081e-01 -1.388292610645294189e-01 -2.458842657506465912e-02
2.220729887485504150e-01 2.383452840149402618e-02 -9.977497160434722900e-02 4.928372800350189209e-02 1.934074461460113525e-01 -9.403537213802337646e-02 -1.685425639152526855e-01 -8.259470015764236450e-02 -2.092646807432174683e-01 -2.029088139533996582e-01 -1.239743549376726151e-02 1.110823675990104675e-01 5.385751649737358093e-02 1.931434571743011475e-01 -6.360893696546554565e-02 2.428434975445270538e-02 1.199830323457717896e-01 -1.751116216182708740e-01 1.647176146507263184e-01 1.954409182071685791e-01 -2.065341472625732422e-01 -1.721157282590866089e-01 -1.059125661849975586e-01 -4.499816894531250000e-02 -3.696911409497261047e-02 1.407862007617950439e-01 -2.117214053869247437e-01 2.150831818580627441e-01 -1.555103808641433716e-01 -1.130212172865867615e-01 1.096797287464141846e-01 2.486828342080116272e-02
3.189794719219207764e-02 1.896451115608215332e-01 -7.744486629962921143e-02 6.165094673633575439e-02 1.186083778738975525e-01 -1.079763770103454590e-01 -2.524743415415287018e-02 -2.792126685380935669e-02 -1.432622522115707397e-01 -1.804870665073394775e-01 -1.040554344654083252e-01 1.147844269871711731e-01 1.881521195173263550e-01 5.026147142052650452e-02 -9.509224444627761841e-02 9.884247183799743652e-02 1.918184161186218262e-01 -1.967722736299037933e-02 1.508796662092208862e-01 3.616108000278472900e-02 6.580116692930459976e-03 -2.239821292459964752e-02 -1.278607249259948730e-01 -9.040011465549468994e-02 -4.666558653116226196e-02 6.680170446634292603e-02 -1.917237639427185059e-01 6.000438239425420761e-03 -5.537958070635795593e-02 -1.661952137947082520e-01 1.493800133466720581e-01 6.409405171871185303e-02
3.153323754668235779e-02 1.326572597026824951e-01 -1.754440069198608398e-01 1.674232035875320435e-01 2.115806564688682556e-02 -1.749648302793502808e-01 -1.663859635591506958e-01 -2.594423852860927582e-02 -9.603729471564292908e-03 -1.073870435357093811e-02 -1.554833054542541504e-01 8.797861635684967041e-02 1.530808508396148682e-01 8.198595792055130005e-02 -1.863175183534622192e-01 3.325403854250907898e-02 1.945765912532806396e-01 -7.198768854141235352e-02 1.242442056536674500e-02 1.959548145532608032e-01 -8.144552260637283325e-02 -4.685777053236961365e-02 -1.694654077291488647e-01 -1.870261728763580322e-01 -1.339680105447769165e-01 6.297125667333602905e-02 -1.023968234658241272e-01 1.130409687757492065e-01 -7.585705071687698364e-02 -1.305500715970993042e-01 1.411098986864089966e-01 2.939423918724060059e-02
8.876839280128479004e-02 2.440966665744781494e-02 -1.139333099126815796e-01 1.515221148729324341e-01 1.932205855846405029e-01 -1.811375021934509277e-01 -4.015440866351127625e-02 -5.773506686091423035e-02 -1.891917735338211060e-01 -1.203228384256362915e-01 -1.412799209356307983e-01 1.660160869359970093e-01 1.797068864107131958e-01 2.912172302603721619e-02 -1.946584731340408325e-01 -2.416117582470178604e-03 5.281461402773857117e-03 -1.980829256353899837e-04 2.863709582015872002e-03 5.255383998155593872e-02 -1.998458355665206909e-01 -8.475060015916824341e-02 -2.647888287901878357e-02 -1.514439284801483154e-01 -1.862135529518127441e-01 1.094944328069686890e-01 -1.989345401525497437e-01 2.047772258520126343e-01 -1.664831191301345825e-01 -2.999853529036045074e-02 1.024327501654624939e-01 9.853645414113998413e-02
1.333424448966979980e-01 1.880258768796920776e-01 -5.153945833444595337e-02 9.167965501546859741e-03 4.507379233837127686e-02 -6.948900967836380005e-02 -4.965483769774436951e-02 -2.024581581354141235e-01 -1.068233624100685120e-01 -1.567340493202209473e-01 -7.355739176273345947e-02 6.411390751600265503e-02 1.480423510074615479e-01 6.453911960124969482e-02 -4.983764607459306717e-03 5.263628438115119934e-02 6.968539208173751831e-02 -1.498800665140151978e-01 1.983544677495956421e-01 1.810582280158996582e-01 -1.900416612625122070e-01 -1.876703947782516479e-01 -2.883482351899147034e-02 -1.072943434119224548e-01 -5.841967090964317322e-02 2.638290077447891235e-02 -8.403113484382629395e-02 1.346749067306518555e-01 -2.007435858249664307e-01 -1.821182370185852051e-01 1.675060838460922241e-01 2.060638666152954102e-01
2.500216476619243622e-02 1.375068873167037964e-01 -1.706411689519882202e-01 1.613166332244873047e-01 1.505988240242004395e-01 -1.021597012877464294e-01 -1.414861083030700684e-01 -1.499712001532316208e-02 -1.243374422192573547e-01 -1.787526011466979980e-01 -5.499221384525299072e-02 1.896840035915374756e-01 1.446998119354248047e-01 1.261493265628814697e-01 -1.836854815483093262e-01 1.117924079298973083e-01 1.868498325347900391e-01 -1.577230393886566162e-01 1.246659783646464348e-03 1.162656582891941071e-02 -9.633634239435195923e-02 -1.895327717065811157e-01 -1.825640536844730377e-02 -1.410471051931381226e-01 -1.827543834224343300e-03 6.837470084428787231e-02 -8.496813476085662842e-02 1.941012889146804810e-01 -1.899220794439315796e-01 -1.246491894125938416e-01 1.763723492622375488e-01 1.645124517381191254e-02
-1.599394083023071289e-01 -8.129335939884185791e-02 1.093092486262321472e-01 -7.351346313953399658e-02 -4.021279886364936829e-02 1.092851981520652771e-01 1.818215698003768921e-01 2.033490985631942749e-01 1.384270042181015015e-01 5.620253086090087891e-02 3.133542602881789207e-03 -7.195856422185897827e-02 -1.047061458230018616e-01 -1.618774831295013428e-01 1.972402930259704590e-01 -1.346486061811447144e-01 -7.839239388704299927e-02 1.462833881378173828e-01 -1.975981593132019043e-01 -1.877970993518829346e-02 5.002406425774097443e-03 1.547156600281596184e-03 7.749432325363159180e-02 1.553343236446380615e-01 4.156721755862236023e-02 -7.287427037954330444e-02 1.888944883830845356e-03 -7.292458415031433105e-02 1.583145707845687866e-01 1.135877147316932678e-01 -7.502161711454391479e-02 1.649464480578899384e-03
-1.916644275188446045e-01 -1.468279212713241577e-01 2.112260609865188599e-01 -1.801915466785430908e-01 -3.735452145338058472e-02 9.179250895977020264e-02 6.655067950487136841e-02 3.856096416711807251e-02 1.977858543395996094e-01 1.457869112491607666e-01 1.579606086015701294e-01 -7.778086513280868530e-02 -8.350350707769393921e-02 -2.108467184007167816e-02 8.321595937013626099e-02 -1.149219200015068054e-01 -1.040185540914535522e-01 3.383475542068481445e-02 -6.108329072594642639e-02 -1.906500458717346191e-01 9.347914904356002808e-02 1.240232288837432861e-01 1.351298242807388306e-01 1.436724960803985596e-01 1.850281953811645508e-01 -1.241345331072807312e-01 1.490007340908050537e-01 -1.854072809219360352e-01 1.787373423576354980e-01 1.959525793790817261e-01 -1.790281087160110474e-01 -1.616258025169372559e-01
6.223931163549423218e-02 1.641034632921218872e-01 -2.022639364004135132e-01 2.450008243322372437e-01 2.285809963941574097e-01 -5.181808769702911377e-02 -1.022453978657722473e-01 -1.735972911119461060e-01 -1.793655157089233398e-01 -1.431718021631240845e-01 -1.537904590368270874e-01 2.072434872388839722e-01 1.298505812883377075e-01 2.577427215874195099e-02 -1.986749023199081421e-01 2.303531914949417114e-01 2.160688936710357666e-01 -7.798646390438079834e-02 1.938230246305465698e-01 3.500783815979957581e-02 -8.087901026010513306e-02 -3.717190399765968323e-02 -2.393161952495574951e-01 -1.562678515911102295e-01 -1.482158750295639038e-01 2.109681367874145508e-01 -1.185314059257507324e-01 2.214851826429367065e-01 -8.287471532821655273e-02 -2.032232284545898438e-01 1.571273654699325562e-01 2.000268101692199707e-01
-1.600736565887928009e-02 -1.386712342500686646e-01 2.081461846828460693e-01 -1.744410991668701172e-01 -7.146619260311126709e-02 1.121983528137207031e-01 1.996376365423202515e-01 1.336629539728164673e-01 1.549790054559707642e-01 2.062470167875289917e-01 1.877970993518829346e-01 -8.572372794151306152e-02 -8.341079205274581909e-02 -1.462462246417999268e-01 8.082948625087738037e-02 -1.821281760931015015e-02 -2.057009749114513397e-02 3.294485434889793396e-02 -1.094506755471229553e-01 -6.636410951614379883e-02 4.491437599062919617e-02 9.865543991327285767e-02 7.815291732549667358e-02 1.162689328193664551e-01 2.358905039727687836e-02 -2.056674063205718994e-01 6.009149178862571716e-02 -2.135669589042663574e-01 1.686307936906814575e-01 6.539139151573181152e-02 -4.900488536804914474e-03 -1.994131654500961304e-01
-1.593305170536041260e-01 -4.753674566745758057e-02 -1.115052960813045502e-02 -2.105360850691795349e-02 -1.214064657688140869e-02 4.375641420483589172e-02 -1.310361083596944809e-03 -1.132896356284618378e-02 6.776955723762512207e-02 1.419586986303329468e-01 6.143008917570114136e-02 -9.492380917072296143e-02 -1.577163040637969971e-01 2.625101618468761444e-02 1.763258278369903564e-01 -1.299763321876525879e-01 -4.067528992891311646e-02 1.771110594272613525e-01 -8.530392497777938843e-02 -1.692593246698379517e-01 1.049224659800529480e-01 1.193052008748054504e-01 1.170957386493682861e-01 1.620542556047439575e-01 3.226706385612487793e-02 -6.120223179459571838e-02 1.478868424892425537e-01 -1.105919405817985535e-01 7.760014384984970093e-02 1.733500659465789795e-01 -8.122614771127700806e-02 -6.289137154817581177e-02
7.749765366315841675e-02 -2.248592302203178406e-02 -1.459403336048126221e-01 1.793725639581680298e-01 5.638082697987556458e-02 -1.080479100346565247e-01 -9.065606631338596344e-03 -1.835233122110366821e-01 -6.515070050954818726e-02 -5.774990096688270569e-02 -8.703868836164474487e-02 1.287689954042434692e-01 1.805007457733154297e-01 9.205379337072372437e-02 5.023179110139608383e-03 -2.250652201473712921e-02 1.494959890842437744e-01 -5.051097273826599121e-02 5.852116644382476807e-02 2.917519537732005119e-03 -1.365842968225479126e-01 -3.256099298596382141e-02 -1.480978131294250488e-01 -1.142928749322891235e-01 -7.040517777204513550e-02 1.798368096351623535e-01 2.693889662623405457e-02 1.825798153877258301e-01 -1.498485654592514038e-01 -5.212295800447463989e-02 9.438728541135787964e-02 1.681694388389587402e-01
-1.680126935243606567e-01 -7.485940307378768921e-02 1.170524954795837402e-01 -1.955789625644683838e-01 -1.054681688547134399e-01 6.059494335204362869e-03 7.127006351947784424e-02 1.205738484859466553e-01 1.070543527603149414e-01 1.785165369510650635e-01 3.262427076697349548e-02 -5.986860021948814392e-02 -8.831116557121276855e-02 -1.705022156238555908e-01 4.797414876520633698e-03 -5.813702568411827087e-02 -1.325948238372802734e-01 1.267700046300888062e-01 -4.382731020450592041e-02 -1.605288237333297729e-01 1.843503862619400024e-01 1.590130329132080078e-01 1.660320609807968140e-01 -1.466710120439529419e-02 4.509778320789337158e-02 -1.705637872219085693e-01 -4.428318701684474945e-03 -6.323637068271636963e-02 1.132625266909599304e-01 2.230129949748516083e-02 -7.636123895645141602e-02 -1.170641183853149414e-01
-1.730523705482482910e-01 -8.273050189018249512e-02 4.659212753176689148e-02 -1.499681472778320312e-01 -1.302963644266128540e-01 1.712800264358520508e-01 3.774816170334815979e-02 3.685586899518966675e-02 1.600810885429382324e-01 2.227386273443698883e-02 1.389397531747817993e-01 -1.725281178951263428e-01 -5.638798698782920837e-02 -6.280166655778884888e-02 -1.062048040330410004e-02 -1.600222885608673096e-01 -1.590190678834915161e-01 9.370934963226318359e-02 -1.474396884441375732e-01 -1.017154008150100708e-01 2.218224294483661652e-02 2.877672435715794563e-03 1.332583427429199219e-01 1.115005761384963989e-01 7.268214970827102661e-02 -2.212144248187541962e-02 -1.887886412441730499e-02 -1.378840804100036621e-01 8.606681227684020996e-02 -2.660841308534145355e-02 -1.929048635065555573e-02 7.020475459285080433e-04
3.049006313085556030e-02 -9.037216752767562866e-02 2.189437858760356903e-02 -8.602593839168548584e-02 -5.592698603868484497e-02 6.807437539100646973e-02 -5.637779366225004196e-03 -1.316506788134574890e-02 1.175036653876304626e-01 6.060823798179626465e-02 5.514251813292503357e-02 -2.231930755078792572e-02 -1.094305664300918579e-01 -8.878260105848312378e-02 1.693865507841110229e-01 -1.616124808788299561e-01 -4.301531706005334854e-03 3.251729160547256470e-02 -1.124633774161338806e-01 -1.565320044755935669e-01 1.017176508903503418e-01 1.540149003267288208e-01 3.513590246438980103e-02 1.283568888902664185e-01 2.353924885392189026e-02 -2.771937660872936249e-02 1.302542239427566528e-01 -3.314159438014030457e-02 2.111673541367053986e-02 1.245836317539215088e-01 -3.821716085076332092e-02 -1.283808797597885132e-01
1.103170588612556458e-01 4.650992527604103088e-02 -7.176995277404785156e-02 1.959691792726516724e-01 1.711565256118774414e-01 -2.010358273983001709e-01 -7.781214267015457153e-02 -5.141426995396614075e-02 -1.500107347965240479e-01 -1.810009479522705078e-01 -1.048125326633453369e-01 9.812483191490173340e-02 4.188098385930061340e-02 3.962021321058273315e-02 -1.694540083408355713e-01 1.599762439727783203e-01 1.479241903871297836e-02 -1.683589518070220947e-01 1.678890734910964966e-01 5.778535827994346619e-02 -1.515533868223428726e-02 -1.526552587747573853e-01 -1.904024034738540649e-01 -1.950738430023193359e-01 -1.019872650504112244e-01 1.369489133358001709e-01 -1.005554795265197754e-01 1.482598036527633667e-01 -1.233252957463264465e-01 -6.874246755614876747e-04 1.287672296166419983e-02 4.174685478210449219e-02
8.729133009910583496e-02 5.986940488219261169e-02 -1.565789617598056793e-02 1.387943327426910400e-01 7.080367952585220337e-02 -1.674712300300598145e-01 -1.714816987514495850e-01 -2.268114872276782990e-02 -5.700604990124702454e-02 -1.552119702100753784e-01 -7.154765725135803223e-02 2.062178030610084534e-02 1.764752715826034546e-01 5.593235045671463013e-02 -7.781012356281280518e-02 -2.144700661301612854e-02 1.082867830991744995e-01 -2.671255171298980713e-02 3.108335658907890320e-03 1.275561451911926270e-01 -1.372892707586288452e-01 -8.691501617431640625e-02 -1.869730502367019653e-01 -1.350577473640441895e-01 -1.647467762231826782e-01 5.648987833410501480e-03 -1.562935411930084229e-01 1.351445019245147705e-01 -6.296473741531372070e-02 -2.140222862362861633e-02 5.268789827823638916e-02 1.589405834674835205e-01
-1.219672337174415588e-01 -1.009041965007781982e-01 -4.342635348439216614e-02 -1.156396195292472839e-01 -1.612945050001144409e-01 2.028119377791881561e-02 2.099379710853099823e-02 -5.185085348784923553e-03 -5.217112135142087936e-03 1.406431943178176880e-01 1.022439822554588318e-01 -7.585886865854263306e-02 -9.279195219278335571e-02 -5.835760384798049927e-02 2.588876523077487946e-02 -1.180194690823554993e-01 -5.618070438504219055e-02 1.768104918301105499e-02 -9.434853494167327881e-02 2.023478969931602478e-02 8.874242752790451050e-02 -1.398174371570348740e-02 1.175723597407341003e-01 1.873462833464145660e-02 5.316244065761566162e-02 -4.725332930684089661e-02 -3.723367676138877869e-02 -1.484112590551376343e-01 1.071128323674201965e-01 7.873038202524185181e-02 -1.262371689081192017e-01 -4.924174770712852478e-02
-8.646011352539062500e-02 2.863673493266105652e-03 3.346449462696909904e-03 4.291504155844449997e-03 -4.533889517188072205e-02 7.368718832731246948e-02 1.988758705556392670e-02 1.047550467774271965e-03 8.938260376453399658e-02 5.855852365493774414e-02 1.570516824722290039e-01 -6.656204164028167725e-02 -2.953148446977138519e-03 -1.276560276746749878e-01 1.779344528913497925e-01 -1.521306037902832031e-01 -1.279116123914718628e-01 1.024917736649513245e-01 2.551867067813873291e-02 1.541295181959867477e-02 1.355575919151306152e-01 1.154336407780647278e-01 5.120335519313812256e-02 1.026660054922103882e-01 -8.685419335961341858e-03 -5.984653532505035400e-02 7.312203198671340942e-02 -1.159524917602539062e-02 2.152616530656814575e-02 1.261069774627685547e-01 -1.738878786563873291e-01 -3.080739639699459076e-02
1.582053005695343018e-01 1.332898586988449097e-01 1.798587664961814880e-02 3.740466758608818054e-02 -1.040080375969409943e-02 -1.514923572540283203e-01 -3.181523829698562622e-02 7.720355875790119171e-03 -1.355883330106735229e-01 -1.049587130546569824e-02 -1.654979735612869263e-01 6.649061571806669235e-03 3.640256077051162720e-02 1.418868899345397949e-01 -7.609978318214416504e-02 1.828947216272354126e-01 6.127922981977462769e-02 -1.330650299787521362e-01 3.641625121235847473e-02 7.201848179101943970e-02 -1.020210757851600647e-01 -1.143772080540657043e-01 -9.293288737535476685e-02 -1.701670885086059570e-01 -1.606200933456420898e-01 1.345496624708175659e-01 -1.795138418674468994e-01 -1.835897192358970642e-02 -1.804986149072647095e-01 3.686427226057276130e-05 1.691310405731201172e-01 1.086651757359504700e-01
1.038942709565162659e-01 3.829091042280197144e-02 -5.568479374051094055e-02 4.899492859840393066e-02 1.353082805871963501e-01 -1.791979968547821045e-01 -6.896881014108657837e-02 -1.276287287473678589e-01 -2.113679200410842896e-01 -1.702046692371368408e-01 -1.127057671546936035e-01 8.285488188266754150e-02 8.189812302589416504e-02 1.353176087141036987e-01 -1.826604753732681274e-01 1.925226002931594849e-01 6.689754873514175415e-02 -1.533171534538269043e-01 1.938783191144466400e-02 2.079736143350601196e-01 -5.801794305443763733e-02 -1.352749168872833252e-01 -1.640661805868148804e-01 -4.464973136782646179e-02 -6.534135341644287109e-02 1.246326938271522522e-01 -1.035690680146217346e-01 7.143789529800415039e-02 -1.089025661349296570e-01 -2.277850657701492310e-01 1.904428452253341675e-01 1.502459794282913208e-01
1.759783774614334106e-01 1.557426452636718750e-01 -5.714169144630432129e-02 2.015106976032257080e-01 1.973718255758285522e-01 -6.307826936244964600e-02 -1.800889708101749420e-02 -1.288345754146575928e-01 -1.829778552055358887e-01 -1.381890326738357544e-01 -5.266268737614154816e-03 1.151875182986259460e-01 1.003308296203613281e-01 1.874785870313644409e-01 -1.774268038570880890e-02 -3.615048481151461601e-04 1.424559042789041996e-03 1.268310099840164185e-02 8.515293896198272705e-02 1.198914647102355957e-01 -2.247859537601470947e-02 -2.107871510088443756e-02 -1.323950588703155518e-01 -2.074554003775119781e-02 -5.839273333549499512e-03 4.968239739537239075e-02 -1.352026476524770260e-03 7.544039934873580933e-02 -8.373715728521347046e-02 -1.747466027736663818e-01 1.812605261802673340e-01 2.037626653909683228e-01
-3.905531391501426697e-02 -5.502436682581901550e-02 5.011338368058204651e-02 -1.292317509651184082e-01 -6.412855535745620728e-02 1.253680735826492310e-01 1.109936907887458801e-01 1.820096671581268311e-01 -7.928904960863292217e-04 8.497351408004760742e-02 1.588773727416992188e-01 -5.810594186186790466e-02 -7.197992503643035889e-02 -1.147102415561676025e-01 7.093359529972076416e-02 -1.434647440910339355e-01 -2.201547473669052124e-02 1.162943914532661438e-01 -7.429213076829910278e-02 -1.912763565778732300e-01 3.001675009727478027e-02 1.774972379207611084e-01 -7.100316695868968964e-03 1.518692076206207275e-01 4.865103587508201599e-02 -9.818986803293228149e-02 1.382741034030914307e-01 -1.040091142058372498e-01 1.455919891595840454e-01 1.150600537657737732e-01 -8.287091553211212158e-02 -1.749540269374847412e-01
-2.136238664388656616e-02 -3.646428883075714111e-02 1.140826866030693054e-01 -1.215032208710908890e-02 -1.434428840875625610e-01 1.565162539482116699e-01 3.020682744681835175e-02 1.514032185077667236e-01 6.626717746257781982e-02 1.040082722902297974e-01 6.046072114259004593e-03 -9.801205247640609741e-03 -5.981819331645965576e-02 2.227641083300113678e-02 1.453134417533874512e-01 -7.828961312770843506e-02 -1.358643174171447754e-01 1.128126755356788635e-01 1.525563746690750122e-02 -9.779015928506851196e-02 5.068934336304664612e-02 1.600368320941925049e-02 1.503750681877136230e-01 1.523321866989135742e-01 1.007064431905746460e-01 -8.421095460653305054e-02 1.664728969335556030e-01 -4.841319471597671509e-02 1.974484138190746307e-02 5.755387246608734131e-02 -1.806977093219757080e-01 -1.020856648683547974e-01
-1.948758065700531006e-01 -7.123068720102310181e-02 6.972309947013854980e-02 -4.874803498387336731e-02 -2.549993991851806641e-02 3.098107129335403442e-02 1.730765849351882935e-01 7.766601443290710449e-02 1.102363690733909607e-01 5.407761782407760620e-02 1.371719092130661011e-01 -1.905680596828460693e-01 -2.132455259561538696e-01 -1.043017506599426270e-01 1.248492598533630371e-01 -8.063548058271408081e-02 -1.366543173789978027e-01 9.522611647844314575e-02 -1.236346736550331116e-01 -4.331349208950996399e-02 9.968287497758865356e-02 1.368136554956436157e-01 2.915310114622116089e-02 1.310209929943084717e-01 4.135508090257644653e-02 -1.602728217840194702e-01 1.866875775158405304e-02 -1.076104566454887390e-01 1.413437128067016602e-01 1.689265370368957520e-01 -9.025620669126510620e-02 -1.246513277292251587e-01
-5.346397310495376587e-02 -2.495114924386143684e-03 9.394962340593338013e-02 -9.159459173679351807e-02 -8.524815738201141357e-02 1.658207625150680542e-01 6.004764139652252197e-02 5.839011818170547485e-02 9.649050235748291016e-02 9.186183661222457886e-02 1.557424366474151611e-01 -1.481622178107500076e-02 -1.791339665651321411e-01 -6.959720700979232788e-02 1.009283885359764099e-01 -1.661148816347122192e-01 -1.080638617277145386e-01 1.267710626125335693e-01 -1.643464565277099609e-01 -3.420914337038993835e-02 1.930142343044281006e-01 8.082474023103713989e-02 1.083179265260696411e-01 1.731148809194564819e-01 8.767116814851760864e-02 -1.743334345519542694e-02 4.662894934881478548e-04 -1.673071235418319702e-01 1.652260422706604004e-01 1.333968341350555420e-01 -1.136826723814010620e-01 -1.202286407351493835e-01
-1.024990621954202652e-02 -1.358957737684249878e-01 4.673575051128864288e-03 -1.179363578557968140e-01 -4.016814753413200378e-02 1.402912586927413940e-01 -6.139052100479602814e-03 1.832307726144790649e-01 1.889288574457168579e-01 1.154055371880531311e-01 1.364329010248184204e-01 -1.512555032968521118e-01 -1.151100471615791321e-01 -1.648999303579330444e-01 1.515731215476989746e-01 -1.052460074424743652e-01 6.952691823244094849e-03 1.654088795185089111e-01 -1.028207391500473022e-01 -5.472242459654808044e-02 6.950126588344573975e-02 1.047621443867683411e-01 -2.606275258585810661e-03 -1.130084972828626633e-02 1.168277412652969360e-01 -1.767969727516174316e-01 7.385097444057464600e-02 -1.361791044473648071e-01 1.179265230894088745e-01 -6.797074805945158005e-03 -1.291031688451766968e-01 -1.668848693370819092e-01
1.672639846801757812e-01 1.008611992001533508e-01 -1.961010396480560303e-01 6.169573962688446045e-02 1.129650399088859558e-01 -1.403894573450088501e-01 -3.901372104883193970e-02 -1.328857690095901489e-01 -1.784839481115341187e-01 -9.409775584936141968e-02 -1.607321053743362427e-01 1.430839449167251587e-01 1.289928257465362549e-01 1.960094273090362549e-01 -1.365505903959274292e-01 9.172946959733963013e-02 1.885786503553390503e-01 -1.415607780218124390e-01 1.546125560998916626e-01 8.370625972747802734e-02 -2.405183017253875732e-02 -1.849132776260375977e-01 -1.588852703571319580e-01 -1.393734291195869446e-02 -5.899254232645034790e-02 6.741289049386978149e-02 -1.833608895540237427e-01 1.766510456800460815e-01 -1.892766356468200684e-01 -4.773563891649246216e-02 8.209038525819778442e-02 1.099459454417228699e-01
1.816519163548946381e-02 9.330101311206817627e-02 -1.271412074565887451e-01 7.157584279775619507e-02 9.761263430118560791e-02 -1.415798664093017578e-01 -1.908969483338296413e-03 -1.067752614617347717e-01 -1.734133511781692505e-01 -1.708853393793106079e-01 -6.075116991996765137e-02 8.069618791341781616e-02 1.254064589738845825e-01 3.974738717079162598e-02 -6.249781232327222824e-03 3.965970873832702637e-02 3.052163869142532349e-02 -1.255756020545959473e-01 3.422087803483009338e-02 4.213920235633850098e-02 -4.189510643482208252e-02 -7.700800895690917969e-02 -5.670917779207229614e-02 -1.121313124895095825e-01 -5.964465811848640442e-02 1.492024213075637817e-01 -1.144672483205795288e-01 1.093830633908510208e-02 -1.023073345422744751e-01 -1.110297068953514099e-01 5.047155171632766724e-02 1.479795277118682861e-01
-7.926255464553833008e-02 -5.024257674813270569e-02 4.987999051809310913e-02 -2.674985118210315704e-02 -2.612586878240108490e-02 5.072899535298347473e-02 1.405874192714691162e-01 9.423354268074035645e-02 1.735145300626754761e-01 1.417577713727951050e-01 6.775907427072525024e-02 -1.690144389867782593e-01 1.127055438701063395e-04 -1.900246888399124146e-01 1.084143891930580139e-01 -4.105665534734725952e-02 -1.667997092008590698e-01 9.777248650789260864e-02 -1.713852286338806152e-01 1.015794463455677032e-03 5.856722220778465271e-02 1.325980275869369507e-01 1.559716165065765381e-01 5.395202338695526123e-02 4.271689802408218384e-02 -7.892274856567382812e-02 1.013663411140441895e-01 -9.889917820692062378e-02 3.816353529691696167e-02 1.279304921627044678e-01 -1.115909442305564880e-01 -1.424754261970520020e-01
1.265920400619506836e-01 1.653365194797515869e-01 -2.948443777859210968e-02 1.883253753185272217e-01 2.219836562871932983e-01 -1.773631274700164795e-01 -1.548139899969100952e-01 -4.766138643026351929e-02 -1.279733628034591675e-01 -2.220606505870819092e-01 -1.029410287737846375e-01 4.611433669924736023e-02 1.825940757989883423e-01 1.241832226514816284e-01 -2.051227688789367676e-01 2.085836827754974365e-01 8.830923587083816528e-02 -1.869756132364273071e-01 7.808263413608074188e-03 1.977612972259521484e-01 -9.686242789030075073e-02 -1.966518461704254150e-01 -1.570144444704055786e-01 -1.689978986978530884e-01 -6.918980181217193604e-02 9.947432577610015869e-02 -1.876204162836074829e-01 1.253371089696884155e-01 -2.177549898624420166e-01 -3.295489400625228882e-02 8.219665288925170898e-02 1.303970366716384888e-01
-5.876954644918441772e-02 -1.500025391578674316e-01 1.544157713651657104e-01 -1.903876066207885742e-01 -9.497102349996566772e-02 6.648450158536434174e-03 1.639118343591690063e-01 1.338793784379959106e-01 1.735176295042037964e-01 8.661319315433502197e-02 5.493001267313957214e-02 -4.981423914432525635e-02 -1.136472597718238831e-01 -5.650244653224945068e-02 2.101186197251081467e-03 -9.972271323204040527e-02 -1.754476279020309448e-01 4.541140794754028320e-02 -1.361664235591888428e-01 -1.752953976392745972e-01 7.483360171318054199e-02 1.812747567892074585e-01 1.495190858840942383e-01 1.316607892513275146e-01 1.933123916387557983e-02 -3.217916563153266907e-02 1.649610847234725952e-01 -1.621994823217391968e-01 1.140876039862632751e-01 1.538666784763336182e-01 -1.115559712052345276e-01 -1.449112594127655029e-01
8.510796725749969482e-02 1.688688844442367554e-01 -6.792505085468292236e-02 1.164918094873428345e-01 5.230034515261650085e-02 -1.490689814090728760e-01 -2.699836716055870056e-02 -6.825254857540130615e-02 -1.910516768693923950e-01 -2.102923206984996796e-02 -1.456876695156097412e-01 1.809485442936420441e-02 6.208063289523124695e-02 1.223544478416442871e-01 -1.155111938714981079e-01 1.933880299329757690e-01 1.204463317990303040e-01 -6.719046831130981445e-02 1.847353875637054443e-01 9.116695821285247803e-02 -6.849410384893417358e-02 -3.768512606620788574e-02 -9.247532486915588379e-02 -4.764683544635772705e-02 -1.753447651863098145e-01 1.473411619663238525e-01 -8.961455523967742920e-02 1.160934716463088989e-01 -1.868500113487243652e-01 -1.650634706020355225e-01 4.541683942079544067e-02 1.071949973702430725e-01
4.551173374056816101e-02 1.153870392590761185e-02 -1.330436170101165771e-01 1.343774199485778809e-01 4.057983402162790298e-03 -1.516314297914505005e-01 -1.474373638629913330e-01 -1.433267295360565186e-01 -1.830743253231048584e-01 -1.599653214216232300e-01 -2.270213142037391663e-02 -1.502496749162673950e-02 -2.174273692071437836e-02 1.816361844539642334e-01 -1.164204627275466919e-02 9.443279355764389038e-02 3.853649273514747620e-02 -1.035929620265960693e-01 1.383330486714839935e-02 4.330429062247276306e-02 1.533998642116785049e-02 -6.804128736257553101e-02 -5.793311819434165955e-02 -1.589427143335342407e-01 -3.446190804243087769e-02 7.912001013755798340e-02 -1.621882170438766479e-01 5.874639004468917847e-02 -1.390148103237152100e-01 1.624967716634273529e-02 3.415989875793457031e-02 2.390813082456588745e-02
-1.158189103007316589e-01 -7.095545530319213867e-02 8.973433077335357666e-02 -1.111732274293899536e-01 -8.393201977014541626e-02 1.795930415391921997e-01 7.491925358772277832e-02 2.604448050260543823e-02 1.435952633619308472e-01 1.502430140972137451e-01 -9.733914397656917572e-03 -1.330766528844833374e-01 -4.226876422762870789e-02 -1.841418594121932983e-01 4.548127949237823486e-02 -3.856553137302398682e-02 -8.828344196081161499e-02 1.221824958920478821e-01 -9.469867497682571411e-02 -1.065545752644538879e-01 6.883960682898759842e-03 8.833484351634979248e-02 1.958702802658081055e-01 8.096146397292613983e-03 1.549872159957885742e-01 -1.635931134223937988e-01 1.441944092512130737e-01 -7.188371568918228149e-02 1.554805636405944824e-01 -5.830047186464071274e-03 -1.447841823101043701e-01 -1.966887265443801880e-01
3.525895625352859497e-02 1.493002939969301224e-02 -1.940425634384155273e-01 1.324099451303482056e-01 1.294251829385757446e-01 -8.120200783014297485e-02 -1.657197475433349609e-01 -1.207183822989463806e-01 -1.262700259685516357e-01 -1.600454449653625488e-01 -1.799488663673400879e-01 1.042961403727531433e-01 1.484068036079406738e-01 1.450758278369903564e-01 -1.940060257911682129e-01 8.368571847677230835e-02 1.201037541031837463e-01 -1.638438999652862549e-01 1.915155202150344849e-01 1.665116995573043823e-01 -6.666668504476547241e-02 -1.249283999204635620e-01 -1.354062110185623169e-01 -7.079249620437622070e-02 -1.969306319952011108e-01 1.612214148044586182e-01 -9.327535331249237061e-02 3.686559572815895081e-02 -1.590070277452468872e-01 -1.236487999558448792e-01 1.403083503246307373e-01 -5.978031083941459656e-03
1.246661096811294556e-01 8.416943997144699097e-02 -1.020536273717880249e-01 8.216838538646697998e-02 -1.344514265656471252e-02 -1.310889571905136108e-01 1.013407390564680099e-02 -6.862715631723403931e-02 -2.745421789586544037e-02 -1.351553797721862793e-01 -6.483987718820571899e-02 9.177639335393905640e-02 1.214999035000801086e-01 -3.155449032783508301e-02 -1.407935470342636108e-01 1.516525447368621826e-01 7.943853735923767090e-02 -1.372963041067123413e-01 7.263305038213729858e-02 8.696036040782928467e-02 1.512019336223602295e-02 -9.091325104236602783e-02 -1.334919482469558716e-01 -1.740673929452896118e-01 -1.681342869997024536e-01 -1.571134291589260101e-02 -1.710412502288818359e-01 1.358623206615447998e-01 -1.245652288198471069e-01 -7.337585091590881348e-02 1.533631384372711182e-01 1.184932887554168701e-01
3.861362114548683167e-02 1.254390329122543335e-01 -1.442852318286895752e-01 1.616268754005432129e-01 2.728707902133464813e-02 -1.660680323839187622e-01 -4.951799288392066956e-02 -1.615530103445053101e-01 -1.396567672491073608e-01 -4.009441286325454712e-02 -1.845454275608062744e-01 1.231125593185424805e-01 1.205467581748962402e-01 2.505880407989025116e-02 -1.146588847041130066e-01 1.633645594120025635e-01 -2.852271776646375656e-03 -8.333589136600494385e-02 3.515426069498062134e-02 1.168764233589172363e-01 -7.357027381658554077e-02 -2.554257772862911224e-02 -1.999192088842391968e-01 -1.866143494844436646e-01 -1.515516936779022217e-01 1.936238445341587067e-02 -9.448662400245666504e-02 7.487880438566207886e-02 -2.617126330733299255e-02 -1.312763094902038574e-01 8.718584477901458740e-02 1.212079543620347977e-03
-2.491127699613571167e-02 -8.957100659608840942e-02 1.418243199586868286e-01 -1.137960925698280334e-01 -1.040896326303482056e-01 7.917987555265426636e-02 1.415533572435379028e-01 2.016650140285491943e-01 1.963823288679122925e-01 4.636121913790702820e-02 1.467894017696380615e-01 -1.430873721837997437e-01 -1.050853058695793152e-01 -9.880375862121582031e-02 1.525028645992279053e-01 -2.147490829229354858e-01 -8.495540916919708252e-02 1.716156452894210815e-01 -1.757502406835556030e-01 -7.983681559562683105e-02 1.508278399705886841e-01 1.920172944664955139e-02 1.157689765095710754e-01 1.954508423805236816e-01 3.478477150201797485e-02 -1.120414659380912781e-01 6.617136299610137939e-02 -1.566396504640579224e-01 3.417851403355598450e-02 7.964687049388885498e-02 -4.805410746484994888e-03 -1.569929867982864380e-01
2.181011252105236053e-02 1.054732427000999451e-01 -1.227217614650726318e-01 1.784800887107849121e-01 1.586616225540637970e-02 -6.606106460094451904e-02 -1.148782595992088318e-01 -2.453939430415630341e-02 -1.732709407806396484e-01 -7.119628787040710449e-02 -1.522265970706939697e-01 3.028784878551959991e-02 1.676069498062133789e-01 2.623233757913112640e-02 -9.456121176481246948e-02 1.976825110614299774e-02 9.784083068370819092e-02 1.065656915307044983e-02 1.157442703843116760e-01 1.803742796182632446e-01 9.988558304030448198e-05 -3.742185980081558228e-02 -1.690022647380828857e-01 -1.770520359277725220e-01 -6.084765866398811340e-02 1.579389423131942749e-01 6.506986916065216064e-03 1.754745543003082275e-01 -9.396912902593612671e-02 -2.177699282765388489e-02 2.554671838879585266e-02 8.828064054250717163e-02
-1.334896534681320190e-01 -2.218229472637176514e-01 5.185710638761520386e-02 -5.398607254028320312e-02 -2.451659552752971649e-02 1.672784537076950073e-01 1.915681511163711548e-01 1.542452722787857056e-01 1.935959458351135254e-01 1.863276213407516479e-01 1.913447082042694092e-01 -5.642008408904075623e-02 -2.202374190092086792e-01 -2.049678415060043335e-01 5.433963611721992493e-02 -2.045811861753463745e-01 -1.424047201871871948e-01 1.194609776139259338e-01 -9.148347377777099609e-02 -5.896748229861259460e-02 2.126889377832412720e-01 7.535650581121444702e-02 1.544796526432037354e-01 1.907879412174224854e-01 5.613524094223976135e-02 -1.746564656496047974e-01 3.825367987155914307e-02 -9.415915608406066895e-02 2.224369943141937256e-01 3.862135857343673706e-02 -1.358763575553894043e-01 -2.210702002048492432e-01
-3.577492013573646545e-02 -7.394970208406448364e-02 1.795995533466339111e-01 -8.007454872131347656e-02 -8.942927420139312744e-02 1.661941856145858765e-01 1.596277505159378052e-01 5.698117613792419434e-02 1.601228266954421997e-01 1.743427664041519165e-01 8.390182256698608398e-02 -2.792815119028091431e-02 -9.250009804964065552e-02 -8.888615667819976807e-02 1.933095157146453857e-01 -5.851161479949951172e-02 -1.160057708621025085e-01 7.046500593423843384e-02 -2.052616924047470093e-01 -1.033814549446105957e-01 7.687233388423919678e-02 1.441736817359924316e-01 9.394747763872146606e-02 2.185443192720413208e-01 1.233085542917251587e-01 -5.348771438002586365e-02 1.470076888799667358e-01 -1.375387161970138550e-01 1.782750785350799561e-01 1.957303434610366821e-01 -2.037896513938903809e-01 -8.682112395763397217e-02
9.019185602664947510e-02 3.504950925707817078e-02 3.197262808680534363e-02 1.748062819242477417e-01 -2.875404432415962219e-03 -1.725568920373916626e-01 -1.356733590364456177e-01 -1.075303629040718079e-01 -1.433488577604293823e-01 -1.593268364667892456e-01 -7.834317162632942200e-03 1.229624599218368530e-01 1.343025714159011841e-01 -7.231242023408412933e-03 -1.602522581815719604e-01 3.517751768231391907e-02 3.668730333447456360e-02 -9.497572667896747589e-03 1.410881727933883667e-01 8.244483172893524170e-02 -1.318838894367218018e-01 -1.108123660087585449e-01 -1.106209754943847656e-01 -1.688010431826114655e-02 -6.242059916257858276e-02 1.420394033193588257e-01 -3.113503195345401764e-02 1.604732125997543335e-02 -1.404476463794708252e-01 -1.663235425949096680e-01 8.657005429267883301e-02 1.413071453571319580e-01
-2.008138969540596008e-02 1.062656939029693604e-01 -1.847996413707733154e-01 1.645018309354782104e-01 8.726638555526733398e-02 -1.091670524328947067e-02 -1.522662043571472168e-01 -1.430262476205825806e-01 -9.137979894876480103e-02 -1.419262737035751343e-01 -6.519537884742021561e-03 4.470087960362434387e-02 1.103707998991012573e-01 6.227647885680198669e-03 -1.478672623634338379e-01 1.519170999526977539e-01 1.328812837600708008e-01 -1.650763750076293945e-01 3.628669306635856628e-02 1.960776187479496002e-02 -1.884770244359970093e-01 -1.581781804561614990e-01 -6.470650434494018555e-02 -1.725631952285766602e-01 -1.275521367788314819e-01 1.194746047258377075e-01 -9.642761200666427612e-02 1.195706352591514587e-01 -3.051487356424331665e-02 -1.607557684183120728e-01 4.655864462256431580e-02 1.464079916477203369e-01
-9.386374056339263916e-02 -1.534698903560638428e-01 7.594861835241317749e-02 -6.690027564764022827e-02 -8.257349580526351929e-02 -1.621426455676555634e-02 1.895290613174438477e-01 1.846790313720703125e-01 2.491769380867481232e-02 1.560890227556228638e-01 4.824863374233245850e-02 -2.728470042347908020e-02 -1.513085067272186279e-01 -5.173821374773979187e-02 1.454969793558120728e-01 -9.482964128255844116e-02 -1.348729431629180908e-01 -2.078259736299514771e-02 -9.506142884492874146e-02 -7.548116892576217651e-02 6.917128711938858032e-02 1.861415505409240723e-01 1.871701031923294067e-01 4.481695219874382019e-02 -1.260464824736118317e-02 -9.135117381811141968e-02 1.011204496026039124e-01 -1.133287139236927032e-02 5.748232454061508179e-02 5.423766374588012695e-02 -1.460452377796173096e-01 -1.171026304364204407e-01
5.389122292399406433e-02 1.653198003768920898e-01 -1.705986112356185913e-01 1.320561319589614868e-01 5.850144848227500916e-02 -1.430951654911041260e-01 -1.898985123261809349e-03 -1.011394038796424866e-01 -1.650974899530410767e-01 -1.251139491796493530e-01 -1.194643229246139526e-01 -1.548664527945220470e-03 1.147884726524353027e-01 4.340938106179237366e-02 -1.197976246476173401e-01 1.858714967966079712e-01 5.330390296876430511e-03 -1.971955150365829468e-01 7.762449234724044800e-02 1.458100229501724243e-01 -3.609921783208847046e-02 -1.549180597066879272e-01 -1.735598444938659668e-01 -1.844478398561477661e-02 -5.071735754609107971e-02 1.821146905422210693e-01 -7.230361551046371460e-02 3.857233747839927673e-02 -1.133572459220886230e-01 -5.410907790064811707e-02 2.008385062217712402e-01 1.276149600744247437e-01
6.537469569593667984e-03 9.053934365510940552e-03 -5.042873322963714600e-02 1.444564163684844971e-01 6.379158794879913330e-02 -1.072695851325988770e-01 -4.520798474550247192e-02 -8.067907392978668213e-02 -1.948116272687911987e-01 -3.358607878908514977e-03 -6.795287877321243286e-02 1.666861772537231445e-01 8.095340430736541748e-02 8.828753978013992310e-02 -6.054798886179924011e-02 9.608440846204757690e-02 5.348104983568191528e-02 -1.815960258245468140e-01 -1.122516207396984100e-02 3.288928046822547913e-02 -1.578916162252426147e-01 -3.425731137394905090e-02 -6.162342056632041931e-02 -7.504402101039886475e-02 -1.852399855852127075e-01 1.243678033351898193e-01 -1.373966783285140991e-01 1.467789616435766220e-02 -1.387605220079421997e-01 -1.625039279460906982e-01 1.788273602724075317e-01 1.938082724809646606e-01
-1.682174056768417358e-01 1.637603715062141418e-02 6.460636109113693237e-02 -1.512767225503921509e-01 -1.071765646338462830e-01 1.156886070966720581e-01 9.433157742023468018e-02 1.522267609834671021e-01 8.818174153566360474e-02 1.406669467687606812e-01 8.068340271711349487e-02 -5.321733653545379639e-02 -4.723510891199111938e-02 -1.544284075498580933e-01 1.366209983825683594e-01 -1.649786978960037231e-01 -1.217989325523376465e-01 4.611348558682948351e-04 -1.575408726930618286e-01 -6.689459085464477539e-02 2.088239416480064392e-02 6.060478463768959045e-02 1.533446013927459717e-01 1.046136245131492615e-01 5.972421914339065552e-02 -9.351359307765960693e-02 8.181246370077133179e-02 -1.429958492517471313e-01 -4.125139676034450531e-04 1.330834031105041504e-01 -9.853187203407287598e-02 -1.047968491911888123e-01
-1.471177488565444946e-01 -1.834747195243835449e-01 1.560963541269302368e-01 -1.659732013940811157e-01 -7.598244398832321167e-02 7.074864208698272705e-02 1.230397373437881470e-01 1.523780822753906250e-01 4.600793495774269104e-02 -8.516200818121433258e-03 1.635721176862716675e-01 -1.647198349237442017e-01 -8.179561048746109009e-02 -1.166459172964096069e-01 1.644337773323059082e-01 -8.179501444101333618e-02 -8.487746119499206543e-02 2.913313172757625580e-02 1.027251221239566803e-02 -8.453084528446197510e-02 6.684966385364532471e-02 1.029854416847229004e-01 1.586526185274124146e-01 3.940213099122047424e-02 1.520302295684814453e-01 -3.516559302806854248e-02 7.312063872814178467e-02 -1.185416951775550842e-01 1.374053210020065308e-01 1.730619668960571289e-01 -1.047466788440942764e-02 -1.725045740604400635e-01
-1.030990481376647949e-01 -1.164158061146736145e-01 1.314845979213714600e-01 -1.445492357015609741e-01 -1.666016578674316406e-01 7.416956126689910889e-02 -1.219393219798803329e-02 -8.481041528284549713e-03 -6.393191870301961899e-03 -1.264595519751310349e-02 1.761299073696136475e-01 -6.216321885585784912e-02 -1.529844850301742554e-01 -1.010458096861839294e-01 9.386453777551651001e-02 -1.344372332096099854e-01 -7.936421781778335571e-02 1.512545049190521240e-01 -8.027084916830062866e-02 1.708578318357467651e-02 9.700064361095428467e-02 1.588669419288635254e-01 1.773132681846618652e-01 1.611471548676490784e-02 1.559682637453079224e-01 -9.004006534814834595e-02 -1.804989017546176910e-02 -2.303231135010719299e-02 1.349775940179824829e-01 1.562526673078536987e-01 -9.750373661518096924e-02 5.110143218189477921e-03
-4.020299762487411499e-03 -8.802404254674911499e-02 1.221041828393936157e-01 -1.688102781772613525e-01 -2.207349054515361786e-02 5.483130738139152527e-02 1.255014985799789429e-01 1.216749325394630432e-01 1.704781502485275269e-01 1.044238135218620300e-01 9.362794458866119385e-02 -3.337853029370307922e-02 -3.179417550563812256e-02 -3.309077024459838867e-02 4.866766557097434998e-02 -3.707946836948394775e-02 -1.105474606156349182e-01 7.358247041702270508e-02 -1.334745883941650391e-01 -1.559837372042238712e-03 1.428990960121154785e-01 1.282189488410949707e-01 1.655330359935760498e-01 -1.370778493583202362e-02 1.527344882488250732e-01 -9.719593822956085205e-02 6.767957657575607300e-02 -8.277328312397003174e-02 1.051367260515689850e-02 1.034300103783607483e-01 -1.149771437048912048e-01 -9.876429103314876556e-03
7.952567189931869507e-02 -9.884623810648918152e-03 -1.645902693271636963e-01 9.078493714332580566e-02 1.166426166892051697e-01 4.946955479681491852e-03 -5.873604491353034973e-02 -1.253193914890289307e-01 -8.761145174503326416e-02 -1.880548894405364990e-01 -1.576928347349166870e-01 1.315014958381652832e-01 1.892657727003097534e-01 6.465971469879150391e-02 -1.053317412734031677e-01 6.516048312187194824e-02 1.569769829511642456e-01 -3.867012262344360352e-02 1.206727474927902222e-01 6.090545654296875000e-02 -1.896819919347763062e-01 -7.705407589673995972e-02 -1.178230270743370056e-01 -4.087665304541587830e-02 -1.522934287786483765e-01 8.295736461877822876e-02 -1.273453235626220703e-01 3.719986975193023682e-02 -8.176685869693756104e-02 -6.250295042991638184e-02 3.508120402693748474e-02 -1.642507128417491913e-02
-1.051445901393890381e-01 -8.488548547029495239e-02 4.011094197630882263e-02 -1.669994890689849854e-01 -1.808958798646926880e-01 3.016544878482818604e-02 1.524750590324401855e-01 7.753842324018478394e-02 1.069334149360656738e-01 1.813464313745498657e-01 -9.721019305288791656e-03 -1.520353555679321289e-01 -1.624682247638702393e-01 -1.637942716479301453e-02 -5.700313020497560501e-03 -1.448499858379364014e-01 9.429197758436203003e-03 1.794152855873107910e-01 -1.209558546543121338e-02 -1.932505369186401367e-01 1.378378719091415405e-01 1.262872517108917236e-01 4.866753239184617996e-03 1.068200990557670593e-01 -9.024282917380332947e-03 -1.286683827638626099e-01 1.609541922807693481e-01 -1.563415676355361938e-01 1.750905662775039673e-01 8.867777884006500244e-02 -1.868291795253753662e-01 -7.646135240793228149e-02
1.393983811140060425e-01 2.125738002359867096e-02 -8.178718388080596924e-02 8.962281793355941772e-02 1.047200635075569153e-01 -1.475395113229751587e-01 -1.578727550804615021e-02 -1.678799688816070557e-01 -3.476382046937942505e-02 -1.385837793350219727e-01 -1.199938356876373291e-01 4.250492528080940247e-02 2.047781795263290405e-01 1.734384745359420776e-01 -2.003299891948699951e-01 2.384082041680812836e-02 6.194308027625083923e-02 -1.745551675558090210e-01 1.074767932295799255e-01 1.220228970050811768e-01 -6.728497892618179321e-02 -1.121204942464828491e-01 -8.099235594272613525e-03 -1.804375797510147095e-01 -2.273041754961013794e-02 1.162161678075790405e-01 -9.869581460952758789e-02 1.898710876703262329e-01 -1.209545657038688660e-01 -1.030130162835121155e-01 1.024670004844665527e-01 4.038343578577041626e-02
-1.357099562883377075e-01 -1.951810121536254883e-01 1.632436551153659821e-02 -2.100729197263717651e-01 -6.737378984689712524e-02 6.607934087514877319e-02 1.521540433168411255e-01 7.412818074226379395e-02 4.700277745723724365e-02 1.999942809343338013e-01 1.030279695987701416e-01 -2.062332630157470703e-01 -5.871244519948959351e-02 -1.938497871160507202e-01 1.796161830425262451e-01 -2.055086940526962280e-01 -1.164426878094673157e-01 1.837869584560394287e-01 -9.029731899499893188e-02 -2.456015162169933319e-02 2.560847438871860504e-02 1.884382516145706177e-01 4.600133374333381653e-02 1.013334468007087708e-01 5.844734609127044678e-02 -9.028317779302597046e-02 5.432977527379989624e-02 -1.373722553253173828e-01 3.728620707988739014e-03 8.149765431880950928e-02 -5.386218428611755371e-03 -9.736368060111999512e-02
-2.630802569910883904e-03 -1.841226071119308472e-01 1.321182027459144592e-02 -5.554923787713050842e-02 -1.389218568801879883e-01 6.326628383249044418e-03 1.433974504470825195e-01 7.459875941276550293e-02 1.386415362358093262e-01 2.407390438020229340e-02 1.404849737882614136e-01 -1.429513394832611084e-01 -1.627468317747116089e-01 -1.203246042132377625e-01 1.775910109281539917e-01 -7.645104825496673584e-02 -6.109062582254409790e-02 4.636141657829284668e-02 8.236486464738845825e-03 -1.561092138290405273e-01 1.139393150806427002e-01 -1.227034162729978561e-02 7.828435301780700684e-02 1.078591644763946533e-01 7.663013041019439697e-02 -1.672946363687515259e-01 6.847816705703735352e-02 -4.730350524187088013e-02 1.451596468687057495e-01 2.881004847586154938e-02 -1.034077480435371399e-01 -9.442493319511413574e-02
-1.955871433019638062e-01 -5.933858081698417664e-02 9.374713897705078125e-02 -1.052653193473815918e-01 -1.593730300664901733e-01 2.683545649051666260e-02 1.066539734601974487e-01 8.794343471527099609e-02 1.822861731052398682e-01 8.335033804178237915e-02 7.960350066423416138e-02 -6.939742714166641235e-02 -5.105520784854888916e-02 -2.346767112612724304e-02 9.047911316156387329e-02 -1.750539988279342651e-01 1.141885644756257534e-03 9.905351698398590088e-02 -1.922623664140701294e-01 -1.268717646598815918e-01 9.716971963644027710e-02 1.264995783567428589e-01 6.011625751852989197e-03 3.402252122759819031e-02 8.777821063995361328e-02 -7.519128918647766113e-02 1.305386871099472046e-01 -1.758338809013366699e-01 1.907210201025009155e-01 1.900495029985904694e-02 -1.880114823579788208e-01 -1.672738641500473022e-01
1.303976923227310181e-01 8.157591521739959717e-02 -4.495987296104431152e-02 1.920443028211593628e-01 7.697721943259239197e-03 -1.376553028821945190e-01 -2.675621956586837769e-02 -2.100379951298236847e-02 -1.793501228094100952e-01 -1.369917672127485275e-02 -8.414723724126815796e-02 1.825522333383560181e-01 1.708404272794723511e-01 2.374299615621566772e-02 -1.766378283500671387e-01 -1.129023078829050064e-02 6.800028681755065918e-02 -1.759749799966812134e-01 1.477686911821365356e-01 9.005826711654663086e-02 -8.769559115171432495e-02 -1.886812448501586914e-01 -1.600873768329620361e-01 -1.206395030021667480e-01 -9.250125288963317871e-02 1.419797390699386597e-01 -9.844231605529785156e-02 4.892694298177957535e-03 -1.040543839335441589e-01 -1.026697754859924316e-01 1.897622346878051758e-01 6.256124377250671387e-02
-1.577446013689041138e-01 -1.939417123794555664e-01 9.380032122135162354e-02 -1.259723007678985596e-01 -5.477989092469215393e-02 1.028652340173721313e-01 1.114464849233627319e-01 9.395892173051834106e-02 1.366179883480072021e-01 1.369137316942214966e-01 9.557954967021942139e-02 -2.846463210880756378e-02 -1.230257973074913025e-01 -2.047207951545715332e-01 5.237055569887161255e-02 -1.893043965101242065e-01 -5.023768544197082520e-02 1.886823773384094238e-01 -7.936462759971618652e-02 -2.236117124557495117e-01 1.436072289943695068e-01 1.941454410552978516e-01 5.610543861985206604e-02 7.673668116331100464e-02 5.997893586754798889e-02 -1.614841818809509277e-01 1.966508179903030396e-01 -8.244711905717849731e-02 9.498839080333709717e-02 1.624019630253314972e-02 -2.154447883367538452e-02 -2.054398208856582642e-01
4.048920795321464539e-02 7.735365629196166992e-02 -1.590120345354080200e-01 2.652711793780326843e-02 1.741714179515838623e-01 -7.007362693548202515e-02 -1.801043450832366943e-01 -1.852541267871856689e-01 -1.959380507469177246e-01 -1.362871676683425903e-01 -9.529133141040802002e-02 1.960936039686203003e-01 6.766996532678604126e-02 3.887860849499702454e-02 -1.497830599546432495e-01 5.790681019425392151e-02 1.171022653579711914e-01 -1.244874373078346252e-01 1.155969575047492981e-01 1.199214830994606018e-01 -7.826895266771316528e-02 -1.556168347597122192e-01 -4.638283699750900269e-02 -1.850619465112686157e-01 -7.826649397611618042e-02 1.436289548873901367e-01 -1.017502546310424805e-01 1.151464879512786865e-01 -4.183203354477882385e-02 -1.121134683489799500e-01 8.166158944368362427e-02 5.470126867294311523e-02
-3.764007240533828735e-02 -1.223471164703369141e-01 9.108777344226837158e-02 -9.364481270313262939e-02 -1.618417352437973022e-01 6.563422083854675293e-02 6.270484626293182373e-02 1.540920585393905640e-01 1.389916241168975830e-01 9.099363535642623901e-02 1.734336316585540771e-01 -1.414833217859268188e-01 -6.267751008272171021e-02 -1.251217871904373169e-01 1.941062510013580322e-01 -3.647210542112588882e-03 -1.127847656607627869e-01 8.700279891490936279e-02 -1.811466962099075317e-01 -3.879406675696372986e-02 2.048344612121582031e-01 1.753038540482521057e-02 -3.763284068554639816e-03 1.214010939002037048e-01 1.387422084808349609e-01 -1.891182549297809601e-02 1.324086822569370270e-02 -4.046200588345527649e-02 2.155847614631056786e-03 1.094405576586723328e-01 -7.318277657032012939e-02 -1.410201936960220337e-01
-1.688503175973892212e-01 -4.014192614704370499e-03 1.568050533533096313e-01 -1.473624110221862793e-01 -9.720101952552795410e-02 1.324360966682434082e-01 1.356596350669860840e-01 1.163045242428779602e-01 1.721930354833602905e-01 1.335482485592365265e-02 1.847755014896392822e-01 -8.573116734623908997e-03 -8.352214470505714417e-03 -5.573315173387527466e-02 1.319212764501571655e-01 -1.270891129970550537e-01 -5.417324975132942200e-02 8.736805617809295654e-02 -4.225297365337610245e-03 -1.676765680313110352e-01 8.151131868362426758e-02 1.898504793643951416e-01 -3.826207714155316353e-03 1.556147933006286621e-01 7.464596629142761230e-02 -6.221690773963928223e-02 2.505928277969360352e-04 -1.315694898366928101e-01 1.277556717395782471e-01 1.641688309609889984e-02 -1.922532916069030762e-02 -1.862887293100357056e-01
-1.145756319165229797e-01 -2.166938735172152519e-03 2.297089993953704834e-02 -1.956172585487365723e-01 -1.907913088798522949e-01 2.729457244277000427e-02 4.954033717513084412e-02 2.161679230630397797e-02 5.655608326196670532e-02 1.814826726913452148e-01 1.962172687053680420e-01 -2.941757626831531525e-02 -2.035869359970092773e-01 -9.507789462804794312e-02 1.385221630334854126e-01 -1.063822358846664429e-01 -1.336626410484313965e-01 1.691256165504455566e-01 -2.449372410774230957e-02 -4.699182510375976562e-02 1.282843947410583496e-01 6.467962265014648438e-02 1.212772652506828308e-01 1.174912527203559875e-01 6.803772598505020142e-02 -1.695402860641479492e-01 6.497883051633834839e-02 -2.711073867976665497e-02 3.834448754787445068e-02 1.848223656415939331e-01 -1.456455141305923462e-01 -8.253085613250732422e-02
-8.030814677476882935e-02 -3.410417959094047546e-02 1.413489878177642822e-01 -1.820744574069976807e-02 -6.455487012863159180e-02 3.325103595852851868e-02 1.105212271213531494e-01 8.746886253356933594e-02 7.429311424493789673e-02 2.645954675972461700e-02 1.299363821744918823e-01 -8.392162621021270752e-02 -6.231182254850864410e-03 -1.414774209260940552e-01 1.698093712329864502e-01 -8.701689541339874268e-03 -2.856834419071674347e-02 1.364492326974868774e-01 -1.477855294942855835e-01 -1.257463097572326660e-01 1.787370443344116211e-01 7.424195110797882080e-02 1.686857193708419800e-01 1.448878347873687744e-01 6.263536959886550903e-02 -1.000889241695404053e-01 1.042496785521507263e-01 -1.162541136145591736e-01 1.064351871609687805e-01 2.412011288106441498e-02 -6.916458159685134888e-02 -8.754789829254150391e-02
-2.513669431209564209e-02 -3.504662215709686279e-02 1.060641109943389893e-01 -1.349480152130126953e-01 4.885138012468814850e-03 6.920367479324340820e-02 8.010356873273849487e-02 -3.104654839262366295e-03 1.700361222028732300e-01 1.325507611036300659e-01 1.269734054803848267e-01 -1.126183494925498962e-01 -1.317912060767412186e-02 -1.172541752457618713e-01 1.783284544944763184e-01 -6.429482251405715942e-03 -1.427008956670761108e-01 1.684548258781433105e-01 -1.198465526103973389e-01 -1.925495564937591553e-01 1.506993323564529419e-01 -1.002633199095726013e-02 8.767697215080261230e-02 3.040554001927375793e-02 1.679759621620178223e-01 -1.068520471453666687e-01 9.034249186515808105e-02 -5.513256415724754333e-02 5.899652466177940369e-02 6.507672369480133057e-02 -3.852514922618865967e-02 -2.993843518197536469e-02
8.578127250075340271e-03 -6.660180515609681606e-04 6.292033940553665161e-02 -1.382932811975479126e-01 -1.603100299835205078e-01 8.868838101625442505e-02 1.486962288618087769e-01 9.045465290546417236e-02 1.634080708026885986e-01 -2.281777188181877136e-02 5.761894211173057556e-02 2.530376799404621124e-02 6.659595761448144913e-03 -1.627675741910934448e-01 1.644751131534576416e-01 -1.429052948951721191e-01 6.037665531039237976e-03 -4.701665602624416351e-03 -6.858427822589874268e-02 -8.965610712766647339e-02 2.288181334733963013e-02 1.389338821172714233e-01 1.699637919664382935e-01 -6.989433430135250092e-03 6.121554970741271973e-02 -9.230692684650421143e-02 3.046506084501743317e-02 3.171699820086359978e-03 1.626904904842376709e-01 5.397051945328712463e-02 1.412102859467267990e-02 2.140119113028049469e-02
1.859143823385238647e-01 1.590938717126846313e-01 -9.270645678043365479e-02 1.660616397857666016e-01 3.404506668448448181e-02 -2.011679112911224365e-01 -1.255032867193222046e-01 -1.791044622659683228e-01 -1.745118796825408936e-01 -3.625563904643058777e-02 -2.824929356575012207e-02 1.697788238525390625e-01 9.501868486404418945e-02 3.669946268200874329e-02 -1.388985365629196167e-01 9.120385348796844482e-02 2.008822709321975708e-01 -1.803073436021804810e-01 1.072121933102607727e-01 2.187846451997756958e-01 -1.954854726791381836e-01 -2.702062204480171204e-02 -6.968469917774200439e-02 -1.938589215278625488e-01 -1.747624203562736511e-02 1.391359865665435791e-01 -9.247731417417526245e-02 1.019355282187461853e-01 -1.050790324807167053e-01 -4.563926905393600464e-02 1.944571882486343384e-01 1.365245580673217773e-01
-1.160962283611297607e-01 -1.287827491760253906e-01 1.322312206029891968e-01 -1.130427643656730652e-01 -1.262789815664291382e-01 1.201766654849052429e-01 6.245015561580657959e-02 2.426939457654953003e-02 1.124139428138732910e-01 4.748862981796264648e-02 5.573854595422744751e-02 -3.769000293686985970e-03 -1.081269010901451111e-01 7.272278424352407455e-03 7.983689755201339722e-02 -1.205652877688407898e-01 -1.618048250675201416e-01 -2.492164075374603271e-02 -1.263086199760437012e-01 -1.685095429420471191e-01 -1.193526573479175568e-02 7.536939531564712524e-02 9.311743080615997314e-02 1.632171273231506348e-01 5.436168052256107330e-03 -1.449535191059112549e-01 2.980960160493850708e-02 -1.683271527290344238e-01 1.489889621734619141e-01 5.059400945901870728e-02 1.993259787559509277e-02 -1.658986210823059082e-01
-9.213719516992568970e-02 -1.958787739276885986e-01 9.788935631513595581e-02 -3.796772658824920654e-02 -1.823378168046474457e-02 1.784974336624145508e-01 1.716844886541366577e-01 7.055867463350296021e-02 1.894281506538391113e-01 1.643964946269989014e-01 1.702106446027755737e-01 -5.331672355532646179e-02 -1.472903341054916382e-01 -1.814453005790710449e-01 5.115711316466331482e-02 -1.931238472461700439e-01 -1.614319086074829102e-01 1.861758381128311157e-01 -7.485620677471160889e-02 -1.805271208286285400e-01 1.421605348587036133e-01 1.000107228755950928e-01 1.942185163497924805e-01 2.831215411424636841e-02 3.206933289766311646e-02 -1.398405618965625763e-02 6.589956581592559814e-02 -1.858636289834976196e-01 1.410700529813766479e-01 2.016889303922653198e-02 -5.725976079702377319e-02 -5.455560237169265747e-02
6.141165643930435181e-02 1.980818510055541992e-01 -1.950992494821548462e-01 1.416068375110626221e-01 1.353609263896942139e-01 -1.030096411705017090e-01 -1.484931558370590210e-01 -1.543115377426147461e-01 -1.130458042025566101e-01 -6.235574930906295776e-02 -1.805299371480941772e-01 9.718351066112518311e-02 7.244424521923065186e-02 2.072673477232456207e-02 -1.972953602671623230e-02 7.274932414293289185e-02 7.669842988252639771e-02 -1.929064840078353882e-01 2.056895047426223755e-01 2.173005416989326477e-02 -5.099653825163841248e-02 -8.982597291469573975e-02 -2.130295485258102417e-01 -8.776044845581054688e-02 -6.310437619686126709e-02 6.694950908422470093e-02 -1.482805609703063965e-01 1.208553910255432129e-01 -1.978978514671325684e-01 -9.706185013055801392e-02 1.904527842998504639e-02 2.127203196287155151e-01
2.022872678935527802e-02 -1.484183669090270996e-01 1.043212860822677612e-01 -5.623875558376312256e-02 -1.194012463092803955e-01 -7.325618993490934372e-03 1.386730968952178955e-01 -3.860378637909889221e-04 2.956403791904449463e-02 6.857417523860931396e-02 1.179279759526252747e-01 -5.545280501246452332e-02 -1.316846013069152832e-01 -1.095094978809356689e-01 7.909184694290161133e-02 -1.258429884910583496e-01 -1.622939854860305786e-02 5.350623279809951782e-02 -1.300835609436035156e-01 -1.072300001978874207e-01 -3.039607591927051544e-02 -2.566001564264297485e-02 -1.736527122557163239e-02 9.297882765531539917e-02 8.350843563675880432e-03 -1.033153533935546875e-01 9.581843018531799316e-02 -1.127883493900299072e-01 1.043646782636642456e-01 8.426070958375930786e-02 1.385998073965311050e-02 -1.644661426544189453e-01
