1.402501314878463745e-01
-4.243967850925400853e-05
-4.721818640973651782e-06
1.426422446966171265e-01
-8.958548278314992785e-06
1.607852727174758911e-01
1.354856938123703003e-01
4.157811054028570652e-05
-1.012446591630578041e-04
-1.133945988840423524e-05
-1.717316263238899410e-05
2.163957506418228149e-01
1.644507199525833130e-01
1.512499302625656128e-01
8.722836524248123169e-02
1.532926261425018311e-01
1.318295747041702271e-01
1.291335970163345337e-01
1.248662918806076050e-01
6.935015335329808295e-06
1.517118960618972778e-01
-3.055906563531607389e-05
-9.714501356938853860e-05
1.880488991737365723e-01
2.244645506143569946e-01
2.262953668832778931e-01
1.369185894727706909e-01
1.647200584411621094e-01
2.376222014427185059e-01
1.441768854856491089e-01
-1.867742685135453939e-05
1.587972491979598999e-01
9.049257641891017556e-06
1.606864780187606812e-01
-6.879748980281874537e-05
1.688330620527267456e-01
1.576468795537948608e-01
5.764353045378811657e-05
1.968109309673309326e-01
1.581166684627532959e-01
2.084716260433197021e-01
1.621669530868530273e-01
1.530213654041290283e-01
-1.300283838645555079e-05
1.616545468568801880e-01
6.235476030269637704e-05
5.074115688330493867e-05
-2.715280061238445342e-05
1.541456729173660278e-01
8.781482392805628479e-06
2.128306180238723755e-01
1.829498410224914551e-01
1.634398251771926880e-01
1.245483160018920898e-01
-2.730239793891087174e-05
-2.908374881371855736e-04
1.499711424112319946e-01
-3.307588485768064857e-06
1.274710446596145630e-01
1.645239535719156265e-07
-2.184483309974893928e-05
-3.017178460140712559e-05
1.485424041748046875e-01
-2.576050464995205402e-04
1.240757107734680176e-01
-2.355407195864245296e-05
4.751549568027257919e-06
-2.286382368765771389e-04
1.351844730379525572e-05
-9.455229155719280243e-05
-5.730866905651055276e-05
-8.724561484996229410e-05
2.399016022682189941e-01
2.821082472801208496e-01
1.399182219756767154e-04
2.550561726093292236e-01
2.409456968307495117e-01
1.317239701747894287e-01
4.921144864056259394e-05
-1.854458605521358550e-05
1.580289304256439209e-01
-7.574888149974867702e-05
-1.496811455581337214e-05
1.921342909336090088e-01
1.441287100315093994e-01
1.461258652852848172e-04
1.623080243007279932e-05
2.185969501733779907e-01
1.741517484188079834e-01
1.824908405542373657e-01
1.272122412919998169e-01
1.684716194868087769e-01
-4.372352850623428822e-05
1.689658612012863159e-01
-3.886649574269540608e-05
-3.470748197287321091e-05
-3.384919182281009853e-05
1.301244199275970459e-01
8.852115570334717631e-06
-5.707338641514070332e-05
-7.012843707343563437e-05
6.652559386566281319e-05
2.314376235008239746e-01
1.781306266784667969e-01
1.539405733346939087e-01
1.403243988752365112e-01
2.032001763582229614e-01
2.033910453319549561e-01
-3.173377263010479510e-05
-1.168939925264567137e-04
-9.376126399729400873e-07
1.943730264902114868e-01
1.825649589300155640e-01
2.012141339946538210e-05
1.735395640134811401e-01
1.627085357904434204e-01
8.680298924446105957e-05
2.140362084901425987e-05
1.952279359102249146e-01
1.707881987094879150e-01
1.617830991744995117e-01
-5.863270416739396751e-05
8.868507393344771117e-06
2.005322128534317017e-01
-6.067058347980491817e-05
3.380115231266245246e-05
3.433711026445962489e-05
-3.030299922102130949e-05
1.756890267133712769e-01
-1.932774830493144691e-05
1.536448001861572266e-01
-8.129191701300442219e-05
-1.396000734530389309e-04
-1.385122595820575953e-04
1.575961261987686157e-01
2.345849275588989258e-01
1.037842812365852296e-04
1.379030793905258179e-01
2.021418064832687378e-01
1.693628132343292236e-01
1.511168777942657471e-01
2.030300647020339966e-01
2.252109497785568237e-01
4.110352165298536420e-06
2.102470546960830688e-01
-1.970808079931885004e-05
-7.537033980042906478e-06
1.853236258029937744e-01
1.837806105613708496e-01
5.963605508441105485e-05
1.575532257556915283e-01
1.314332634210586548e-01
2.425426691770553589e-01
-1.820713805500417948e-06
2.475894689559936523e-01
2.015565037727355957e-01
-8.604250615462660789e-05
2.336285561323165894e-01
-1.941497612278908491e-05
1.659600734710693359e-01
1.525518000125885010e-01
-8.381181396543979645e-05
1.027157704811543226e-04
3.649358768598176539e-05
1.746490001678466797e-01
1.418887841282412410e-04
1.144118458032608032e-01
1.842608451843261719e-01
2.617783320602029562e-05
-4.413698115968145430e-05
-2.635876880958676338e-04
2.031765431165695190e-01
1.730503439903259277e-01
-2.210876555182039738e-04
-6.376468081725761294e-05
2.453590184450149536e-01
-4.036752216052263975e-06
3.065123382839374244e-05
1.613614112138748169e-01
1.598157584667205811e-01
1.602122932672500610e-01
1.677731275558471680e-01
1.379311531782150269e-01
1.584642529487609863e-01
1.637492924928665161e-01
1.010467240121215582e-04
1.513607800006866455e-01
6.403757288353517652e-05
1.322309821844100952e-01
1.909730434417724609e-01
-4.473494482226669788e-05
-6.576597661478444934e-05
-1.445620000595226884e-04
1.208997517824172974e-01
1.698630750179290771e-01
1.336993445875123143e-04
1.065280735492706299e-01
1.058465167880058289e-01
1.590851694345474243e-01
1.409256011247634888e-01
-6.083745756768621504e-05
1.699343472719192505e-01
1.579216768732294440e-04
1.321139186620712280e-01
-4.373640331323258579e-05
6.071792449802160263e-05
-3.537337761372327805e-06
1.964752376079559326e-01
2.301380336284637451e-01
-4.069957867613993585e-05
2.670091986656188965e-01
6.649264105362817645e-05
2.345408720429986715e-04
2.194367796182632446e-01
6.638592458330094814e-05
1.500407755374908447e-01
2.074761837720870972e-01
1.182323694229125977e-01
-9.575823787599802017e-05
9.941963071469217539e-05
-4.630415060091763735e-05
1.704805493354797363e-01
2.368792295455932617e-01
1.642467230558395386e-01
1.987809687852859497e-01
1.558575928211212158e-01
2.511251866817474365e-01
1.519341021776199341e-01
-7.805948553141206503e-05
1.643145680427551270e-01
1.947814673185348511e-01
2.823768556118011475e-01
1.307673156261444092e-01
8.211411477532237768e-05
7.440875924658030272e-05
3.675385232781991363e-05
-2.009278978221118450e-04
-7.294383976841345429e-05
-2.945707819890230894e-07
1.436878144741058350e-01
1.660641580820083618e-01
3.393899798393249512e-01
-1.286670521949417889e-05
1.878196053439751267e-05
1.953388601541519165e-01
1.243946552276611328e-01
1.754943132400512695e-01
-1.309901126660406590e-04
1.775988489389419556e-01
1.585085541009902954e-01
-1.704390160739421844e-05
-5.278222670312970877e-05
1.300953477621078491e-01
-2.599541767267510295e-05
-9.760168904904276133e-05
1.666953176027163863e-04
1.634937673807144165e-01
-1.928584970301017165e-05
4.173163688392378390e-05
1.100500002503395081e-01
1.280545890331268311e-01
1.088538318872451782e-01
1.640320271253585815e-01
1.796738356351852417e-01
1.252561062574386597e-01
-2.248181408504024148e-04
1.139271631836891174e-01
1.069141580956056714e-04
1.711088418960571289e-01
1.730154156684875488e-01
3.224987813155166805e-05
-2.971251342387404293e-05
2.294000536203384399e-01
8.997926670417655259e-06
-1.644943840801715851e-03
1.636668145656585693e-01
2.777090668678283691e-01
1.294258385896682739e-01
1.332486867904663086e-01
-5.630544910673052073e-05
1.385748684406280518e-01
2.232970291515812278e-05
-3.581778219086118042e-05
1.797673106193542480e-01
1.592064797878265381e-01
1.728979498147964478e-01
2.455365806818008423e-01
1.529200971126556396e-01
1.755233407020568848e-01
-1.506486205471446738e-05
2.098268568515777588e-01
1.078155040740966797e-01
1.344887763261795044e-01
2.336908876895904541e-01
1.139730960130691528e-01
-8.529615297447890043e-05
7.999975059647113085e-05
1.665751785039901733e-01
2.072771489620208740e-01
1.160780638456344604e-01
9.842003055382519960e-05
-1.716931001283228397e-04
1.867450326681137085e-01
3.621412179199978709e-05
1.319613456726074219e-01
2.030858099460601807e-01
-6.164911610540002584e-06
2.201047539710998535e-01
5.520542617887258530e-05
1.003492870950140059e-04
1.845735460519790649e-01
1.573919802904129028e-01
-7.462019857484847307e-05
1.590552181005477905e-01
1.895650178194046021e-01
3.669751458801329136e-05
2.183969765901565552e-01
2.534007944632321596e-05
1.983713060617446899e-01
1.997629851102828979e-01
1.628486663103103638e-01
1.841864468588028103e-05
1.670059710741043091e-01
1.789924055337905884e-01
1.221103370189666748e-01
1.573516726493835449e-01
-4.304857429815456271e-05
1.451676143915392458e-05
9.256225894205272198e-05
1.133548357756808400e-04
2.172377556562423706e-01
2.215464115142822266e-01
2.249220311641693115e-01
1.327875703573226929e-01
1.770305335521697998e-01
1.838171333074569702e-01
-1.058810230460949242e-04
1.369476318359375000e-01
9.789508476387709379e-05
1.263418793678283691e-01
1.979661881923675537e-01
-6.666959961876273155e-05
4.832034028368070722e-05
-3.506566281430423260e-05
1.544250845909118652e-01
-2.138272611773572862e-05
1.891418248414993286e-01
2.814304828643798828e-01
9.838403761386871338e-02
1.510108262300491333e-01
-8.712118142284452915e-05
1.305683106184005737e-01
2.050009220838546753e-01
5.898566996620502323e-06
4.145824732404435053e-06
-2.206097269663587213e-05
1.344357430934906006e-01
2.015667110681533813e-01
8.887576768756844103e-06
2.535085976123809814e-01
-8.356391481356695294e-05
3.288030028343200684e-01
-5.269540997687727213e-05
1.789381057024002075e-01
-6.161788041936233640e-05
-3.970820398535579443e-05
1.452248990535736084e-01
1.583437770605087280e-01
-4.710969733423553407e-05
1.941215991973876953e-01
1.714197993278503418e-01
2.285082042217254639e-01
-4.156204522587358952e-04
1.621665060520172119e-01
-7.148081203922629356e-05
2.104875892400741577e-01
2.297419268870726228e-05
1.281876393477432430e-05
1.515732407569885254e-01
2.323310181964188814e-04
5.866029096068814397e-05
4.590631579048931599e-05
1.401333808898925781e-01
-6.644921086262911558e-05
2.053043991327285767e-01
1.127759739756584167e-01
1.134147197008132935e-01
-1.171969415736384690e-05
1.398863792419433594e-01
6.646659312536939979e-05
-3.717393701663240790e-05
2.418606728315353394e-01
1.620008647441864014e-01
2.255631238222122192e-01
5.400579539127647877e-06
1.774512082338333130e-01
2.393870055675506592e-01
-7.510914292652159929e-05
1.839732080698013306e-01
1.629386842250823975e-01
1.577873080968856812e-01
8.018309017643332481e-06
-1.367129698337521404e-05
5.528768815565854311e-05
-6.235256296349689364e-05
1.478539343224838376e-05
1.153619959950447083e-01
-5.895750291529111564e-05
9.695391356945037842e-02
1.579123288393020630e-01
-3.580366683308966458e-05
2.573021948337554932e-01
1.875318586826324463e-01
-5.969707854092121124e-05
-8.598807471571490169e-05
2.952079012175090611e-05
5.875095666851848364e-06
1.505910307168960571e-01
5.272525231703184545e-05
-8.109893678920343518e-05
1.371764689683914185e-01
2.045265883207321167e-01
-3.883981844410300255e-05
1.514531672000885010e-01
-2.584875801403541118e-05
1.886739581823348999e-01
5.877029980183579028e-05
-9.590206173015758395e-05
4.479569906834512949e-05
8.728895772946998477e-05
1.922573149204254150e-01
2.143623828887939453e-01
1.438968032598495483e-01
7.747552444925531745e-05
1.837560832500457764e-01
1.678045988082885742e-01
2.624480403028428555e-04
-8.130013156915083528e-05
1.423202306032180786e-01
2.530680596828460693e-01
3.109714270976837724e-06
1.896501635201275349e-04
1.200729086995124817e-01
8.742543286643922329e-06
1.947987079620361328e-01
1.537576466798782349e-01
1.237016096711158752e-01
1.841122210025787354e-01
1.716899424791336060e-01
2.372504621744155884e-01
-1.722946763038635254e-06
-1.135160273406654596e-04
1.176620498299598694e-01
-2.744161793089006096e-05
1.985408812761306763e-01
9.590533375740051270e-02
1.838464140892028809e-01
1.106610149145126343e-01
-2.166756166843697429e-05
1.036754110828042030e-05
2.110355496406555176e-01
1.600845158100128174e-01
1.446156948804855347e-01
1.479990333318710327e-01
2.247554063796997070e-01
1.496770679950714111e-01
1.505018472671508789e-01
-1.315114786848425865e-05
1.921709477901458740e-01
-1.161729960585944355e-04
1.201680302619934082e-01
3.193740121787413955e-05
1.165711954236030579e-01
-4.396748408908024430e-06
1.777385324239730835e-01
1.963748484849929810e-01
1.797864586114883423e-01
-7.529721187893301249e-05
1.646854728460311890e-01
1.230991110205650330e-01
-2.858931657101493329e-05
4.215224180370569229e-05
-7.910186832305043936e-05
1.852083504199981689e-01
1.375211924314498901e-01
-3.665264011942781508e-05
3.419451968511566520e-05
-2.737296017585322261e-05
3.348847531015053391e-05
1.879725903272628784e-01
6.501487223431468010e-05
1.617287397384643555e-01
-4.182498378213495016e-05
-6.811777711845934391e-05
-2.554845923441462219e-05
2.515203356742858887e-01
8.281167538370937109e-07
1.498689353466033936e-01
1.836129873991012573e-01
1.387079100823029876e-05
1.864906102418899536e-01
2.165169417858123779e-01
1.540508270263671875e-01
-7.346490747295320034e-05
-3.572613786673173308e-05
8.726727537577971816e-05
1.391036510467529297e-01
1.630086451768875122e-01
1.233168393373489380e-01
-6.845488678663969040e-05
-1.306610793108120561e-04
1.254853308200836182e-01
