-2.571560740470886230e-01
-1.645481139421463013e-01
1.726677268743515015e-01
-2.849953770637512207e-01
2.917447388172149658e-01
2.230426034657284617e-04
-2.497303187847137451e-01
-3.834275007247924805e-01
-1.611639410257339478e-01
-1.900951713323593140e-01
1.100541949272155762e-01
1.992930024862289429e-01
2.611059844493865967e-01
-2.800446152687072754e-01
-1.914420425891876221e-01
1.575670391321182251e-01
8.364886045455932617e-03
-2.432669103145599365e-01
3.013288080692291260e-01
1.304582357406616211e-01
-3.554427027702331543e-01
-1.018629148602485657e-01
3.030686057172715664e-04
1.899442821741104126e-01
-3.905158936977386475e-01
1.583063453435897827e-01
1.828902661800384521e-01
2.199841141700744629e-01
-2.295758277177810669e-01
-1.559775918722152710e-01
-1.840190440416336060e-01
-1.531349718570709229e-01
-2.065467089414596558e-01
-2.106355875730514526e-01
2.034130841493606567e-01
2.524271011352539062e-01
1.811158657073974609e-01
2.216197848320007324e-01
-7.952757179737091064e-02
-2.377151250839233398e-01
2.866939306259155273e-01
8.964207954704761505e-04
-2.810200750827789307e-01
-1.322745159268379211e-02
2.757171392440795898e-01
-1.766775101423263550e-01
7.480225758627057076e-04
1.422184258699417114e-01
3.697941601276397705e-01
1.309055685997009277e-01
-1.862942725419998169e-01
2.744330465793609619e-01
-1.169864237308502197e-01
-3.776763677597045898e-01
-1.595337688922882080e-01
2.124348282814025879e-02
1.897786110639572144e-01
6.298378854990005493e-02
2.220638692378997803e-01
-3.593464195728302002e-01
7.835669443011283875e-03
-3.520517051219940186e-01
-2.236010134220123291e-01
-3.483361899852752686e-01
1.113386601209640503e-01
3.237907290458679199e-01
-2.319577932357788086e-01
1.581826359033584595e-01
6.385017931461334229e-02
-2.454540431499481201e-01
-1.750699877738952637e-01
2.132099866867065430e-01
1.492131054401397705e-01
-1.315283775329589844e-01
-2.856751978397369385e-01
-3.395143449306488037e-01
2.530923783779144287e-01
4.972744500264525414e-04
-1.599446535110473633e-01
-1.284736245870590210e-01
2.002191096544265747e-01
1.819336414337158203e-01
1.910727769136428833e-01
1.785280555486679077e-01
5.279240576783195138e-05
2.784683704376220703e-01
2.784007489681243896e-01
2.956265509128570557e-01
2.323474735021591187e-01
3.189291059970855713e-01
-1.544950008392333984e-01
1.074551939964294434e-01
1.756779700517654419e-01
-1.688945591449737549e-01
9.672592580318450928e-02
-1.966716051101684570e-01
-1.295468956232070923e-02
-1.678891479969024658e-01
-1.661568433046340942e-01
-3.136701285839080811e-01
-2.076425999402999878e-01
-2.649793326854705811e-01
-3.247504234313964844e-01
-1.711386442184448242e-01
1.471670567989349365e-01
-1.323719918727874756e-01
-1.512572467327117920e-01
-1.173511892557144165e-01
-2.698328495025634766e-01
1.037767069647088647e-04
1.912547796964645386e-01
1.397469490766525269e-01
-1.650150865316390991e-01
5.636094883084297180e-02
-2.189353853464126587e-01
-2.641484439373016357e-01
2.061864733695983887e-01
-2.156680822372436523e-01
2.151501774787902832e-01
-1.121358275413513184e-01
1.236079707741737366e-01
2.546806335449218750e-01
-1.993759870529174805e-01
-1.590970456600189209e-01
-2.310791909694671631e-01
-3.542555868625640869e-01
2.322435528039932251e-01
2.506779134273529053e-01
-1.883696997538208961e-03
-2.483288645744323730e-01
2.466073334217071533e-01
1.067663803696632385e-01
-2.236443907022476196e-01
-2.919836938381195068e-01
9.260573983192443848e-02
2.356429398059844971e-01
2.784541845321655273e-01
1.386538986116647720e-02
1.408105790615081787e-01
-1.252201497554779053e-01
-2.658786177635192871e-01
-2.466429620981216431e-01
-1.851954013109207153e-01
-1.425521224737167358e-01
2.028438001871109009e-01
2.297994196414947510e-01
-3.105411529541015625e-01
-2.156554013490676880e-01
-2.403070032596588135e-02
-2.257031500339508057e-01
2.164201736450195312e-01
2.048160135746002197e-01
2.951115020550787449e-04
-1.240501105785369873e-01
-1.922632902860641479e-01
-1.817354857921600342e-01
-2.167524099349975586e-01
1.550716310739517212e-01
-1.826360225677490234e-01
-1.684152781963348389e-01
-2.225668281316757202e-01
-2.209428250789642334e-01
-2.344779968261718750e-01
2.825640607625246048e-03
1.376299858093261719e-01
8.514115214347839355e-02
-1.812698841094970703e-01
2.718144655227661133e-01
2.294253408908843994e-01
1.360673755407333374e-01
-1.614230275154113770e-01
-3.700677156448364258e-01
-2.542751133441925049e-01
1.295702904462814331e-01
1.054138690233230591e-01
3.381025195121765137e-01
3.159297108650207520e-01
5.899088084697723389e-02
1.905148327350616455e-01
-2.151569575071334839e-01
1.522887945175170898e-01
4.812332689762115479e-01
6.857910007238388062e-02
3.087218701839447021e-01
-3.787867426872253418e-01
-7.822400331497192383e-02
-1.756233870983123779e-01
2.425847053527832031e-01
-2.107429206371307373e-01
4.953752458095550537e-02
-2.365394979715347290e-01
2.464105337858200073e-01
-2.827820479869842529e-01
3.044404648244380951e-02
-2.719605863094329834e-01
-3.654313087463378906e-02
-3.088366687297821045e-01
-4.115101695060729980e-01
-1.254886537790298462e-01
3.896058201789855957e-01
2.220821976661682129e-01
-1.888458132743835449e-01
2.468186020851135254e-01
-2.025380432605743408e-01
-1.676924002822488546e-04
-1.627939194440841675e-01
-9.305310994386672974e-02
1.165450587868690491e-01
-1.818838864564895630e-01
-2.301588058471679688e-01
-2.792207002639770508e-01
-1.854352653026580811e-01
2.638213634490966797e-01
-1.019397228956222534e-01
1.139639317989349365e-01
1.401705592870712280e-01
-3.923802077770233154e-01
2.095406353473663330e-01
-1.540834158658981323e-01
-2.620140612125396729e-01
-8.328419178724288940e-02
2.330631762742996216e-01
1.620085239410400391e-01
3.617112934589385986e-01
3.253064751625061035e-01
-2.012445032596588135e-01
-2.656769454479217529e-01
-1.177757233381271362e-01
7.911890745162963867e-02
6.249765865504741669e-04
-2.589814662933349609e-01
2.416288554668426514e-01
-3.375585079193115234e-01
-1.993324011564254761e-01
-3.325702548027038574e-01
-2.565180361270904541e-01
-1.981056183576583862e-01
-2.064995914697647095e-01
-2.440034002065658569e-01
-2.438774108886718750e-01
-2.086278796195983887e-01
-2.971104979515075684e-01
-2.567354440689086914e-01
-2.631722986698150635e-01
-2.442198693752288818e-01
-3.085092306137084961e-01
-1.981837600469589233e-01
8.145084232091903687e-02
-2.367479652166366577e-01
-2.568597197532653809e-01
-6.476982682943344116e-02
-1.612953394651412964e-01
-2.655889391899108887e-01
1.336195617914199829e-01
-2.222600579261779785e-01
-2.804761528968811035e-01
3.603331744670867920e-01
-3.059981167316436768e-01
2.650352716445922852e-01
-2.370772361755371094e-01
-1.138002797961235046e-01
1.856791228055953979e-02
2.930162299890071154e-04
-2.394233047962188721e-01
9.679508954286575317e-02
2.477338910102844238e-01
5.452771438285708427e-04
-2.567789554595947266e-01
2.501105964183807373e-01
-2.215337306261062622e-01
-2.608387172222137451e-01
-1.101189330220222473e-01
2.337419092655181885e-01
2.160416096448898315e-01
2.490928024053573608e-01
-1.684016734361648560e-01
-2.110032141208648682e-01
3.450790643692016602e-01
2.006589174270629883e-01
-2.353295981884002686e-01
-2.195607274770736694e-01
-1.832194684538990259e-04
3.079400062561035156e-01
1.611639857292175293e-01
9.854672849178314209e-02
-1.738906092941761017e-02
-2.301591187715530396e-01
-1.084095910191535950e-01
-2.305635064840316772e-01
-3.277498781681060791e-01
2.426424026489257812e-01
-3.279007077217102051e-01
-2.650291621685028076e-01
-2.516942024230957031e-01
-2.674233615398406982e-01
1.338783055543899536e-01
-2.725209593772888184e-01
-2.302552163600921631e-01
-2.174796909093856812e-01
-3.206020593643188477e-01
7.702665752731263638e-04
3.133062720298767090e-01
2.410078886896371841e-03
-1.833181679248809814e-01
6.828767061233520508e-02
4.514307901263237000e-02
1.888078600168228149e-01
1.130279675126075745e-01
-1.973561644554138184e-01
-1.734266728162765503e-01
-3.124213814735412598e-01
2.210016697645187378e-01
-3.670721352100372314e-01
3.822067007422447205e-02
1.970367133617401123e-01
-1.660592705011367798e-01
-9.625578671693801880e-02
1.049276906996965408e-02
-1.575411260128021240e-01
8.040455728769302368e-02
7.861173152923583984e-02
-1.448560953140258789e-01
-3.097863197326660156e-01
9.598545730113983154e-03
2.300099283456802368e-01
-2.038748413324356079e-01
-1.617888510227203369e-01
-1.829611957073211670e-01
-1.377214640378952026e-01
3.926054835319519043e-01
1.957448571920394897e-01
-8.884806185960769653e-02
1.288468688726425171e-01
1.401108950376510620e-01
-3.261657655239105225e-01
-2.715840637683868408e-01
-2.617039382457733154e-01
-1.424006074666976929e-01
1.865130215883255005e-01
1.399867385625839233e-01
-1.860423833131790161e-01
-1.579576730728149414e-01
-2.164914309978485107e-01
1.977127045392990112e-01
-1.709368675947189331e-01
-2.612864971160888672e-01
-3.152783215045928955e-01
-3.207328021526336670e-01
2.273286134004592896e-01
-2.994929850101470947e-01
-2.297366708517074585e-01
-2.280890047550201416e-01
-2.402998059988021851e-01
1.929918080568313599e-01
3.628221154212951660e-01
-2.625795304775238037e-01
-2.235538065433502197e-01
3.063753829337656498e-04
2.136253751814365387e-04
-2.333220541477203369e-01
-1.505947411060333252e-01
-1.349925696849822998e-01
-2.077724039554595947e-01
1.776079684495925903e-01
-2.198607474565505981e-01
6.217292044311761856e-03
2.217549383640289307e-01
-2.610069215297698975e-01
3.460953757166862488e-02
-3.040216863155364990e-01
-2.539649009704589844e-01
-2.522813677787780762e-01
2.932118475437164307e-01
-1.850434094667434692e-01
2.138824434950947762e-03
-2.512181699275970459e-01
1.774412989616394043e-01
-2.354642599821090698e-01
6.888676434755325317e-02
2.447999268770217896e-02
-2.480172663927078247e-01
1.874305307865142822e-01
3.045563399791717529e-01
-2.140323370695114136e-01
1.348234564065933228e-01
-1.316095143556594849e-01
-1.367122232913970947e-01
-1.776912063360214233e-01
-2.176875621080398560e-01
-2.146811038255691528e-01
1.645099520683288574e-01
-2.439176738262176514e-01
-3.297716975212097168e-01
7.296478748321533203e-02
-2.190635800361633301e-01
-3.766791895031929016e-02
2.717872848734259605e-03
3.932515624910593033e-03
-2.196941822767257690e-01
3.541016876697540283e-01
-1.318067759275436401e-01
1.584567725658416748e-01
-2.029137462377548218e-01
-1.929914504289627075e-01
-1.454381197690963745e-01
-3.196072876453399658e-01
3.459227383136749268e-01
-2.163031846284866333e-01
-1.681891381740570068e-01
-2.104333192110061646e-01
2.425008267164230347e-01
-1.005893014371395111e-02
2.977349758148193359e-01
-2.537333667278289795e-01
-1.522680073976516724e-01
6.790459901094436646e-02
-1.635727435350418091e-01
1.020237654447555542e-01
-1.797400563955307007e-01
-2.106296867132186890e-01
-2.216557264328002930e-01
1.583555489778518677e-01
-2.107755690813064575e-01
3.428025245666503906e-01
1.809472143650054932e-01
-2.135029584169387817e-01
1.876997798681259155e-01
2.710281908512115479e-01
2.134846746921539307e-01
6.682287901639938354e-02
-2.969036996364593506e-01
-1.694130301475524902e-01
-2.248474657535552979e-01
2.589859962463378906e-01
9.156525880098342896e-02
1.359304785728454590e-01
-3.544185161590576172e-01
1.671090573072433472e-01
-1.868081837892532349e-01
-2.735530436038970947e-01
1.258454140042886138e-04
1.246929392218589783e-01
-2.764609754085540771e-01
1.839503347873687744e-01
2.597349882125854492e-01
4.115117341279983521e-02
-1.461767107248306274e-01
-2.752161324024200439e-01
-2.903163135051727295e-01
2.493856251239776611e-01
-3.031010031700134277e-01
-2.272431552410125732e-01
-2.103754729032516479e-01
8.142517507076263428e-02
-2.317162007093429565e-01
1.792137175798416138e-01
1.170626804232597351e-01
-3.301660716533660889e-01
7.344956696033477783e-02
2.359522283077239990e-01
1.992865502834320068e-01
2.224082201719284058e-01
-2.173499614000320435e-01
9.814657270908355713e-02
1.559761464595794678e-01
-2.643705904483795166e-01
-2.233951091766357422e-01
2.452560216188430786e-01
3.716799616813659668e-01
-5.180548131465911865e-02
-1.012104004621505737e-01
1.729746609926223755e-01
-2.034531980752944946e-01
-2.376595735549926758e-01
2.480433434247970581e-01
1.112050935626029968e-01
-6.108164234319701791e-05
2.789343893527984619e-01
9.271941334009170532e-02
6.179463863372802734e-02
-2.395579218864440918e-01
1.880437135696411133e-01
1.463886648416519165e-01
1.621867418289184570e-01
1.408726722002029419e-01
3.952053487300872803e-01
-1.580035090446472168e-01
-9.254561155103147030e-05
-1.646840870380401611e-01
-2.793131768703460693e-01
-3.318477571010589600e-01
-1.672150790691375732e-01
2.245974838733673096e-01
1.431907266378402710e-01
-1.432797610759735107e-01
-1.759752482175827026e-01
-2.265964448451995850e-01
-2.754464447498321533e-01
1.478683352470397949e-01
-1.317852735519409180e-01
-1.846319586038589478e-01
1.737069487571716309e-01
2.352522164583206177e-01
-8.356761187314987183e-02
-2.064215242862701416e-01
-1.900405883789062500e-01
-2.031563669443130493e-01
-2.348352521657943726e-01
2.406539320945739746e-01
1.140740811824798584e-01
-2.368991971015930176e-01
9.439371526241302490e-02
