-1.901237517595291138e-01
-1.916896998882293701e-01
2.045290023088455200e-01
-2.037158906459808350e-01
1.286509633064270020e-01
2.682800889015197754e-01
-4.205539524555206299e-01
-3.162777423858642578e-01
-3.300014138221740723e-01
2.392016947269439697e-01
1.985277086496353149e-01
2.587506771087646484e-01
7.920926809310913086e-02
-2.211935818195343018e-01
-1.840182840824127197e-01
2.258551830891519785e-04
-6.512986030429601669e-03
-2.446005046367645264e-01
2.477288842201232910e-01
4.978301376104354858e-02
-2.708726823329925537e-01
2.079497426748275757e-01
3.027518093585968018e-01
2.413395643234252930e-01
-2.922843694686889648e-01
1.501738727092742920e-01
-2.757133245468139648e-01
1.549920588731765747e-01
-3.171733319759368896e-01
-2.537997663021087646e-01
-1.315506249666213989e-01
-1.652246117591857910e-01
-2.003798186779022217e-01
-1.930913776159286499e-01
3.886679112911224365e-01
4.244591593742370605e-01
2.191284894943237305e-01
1.287514418363571167e-01
-8.995186362881213427e-05
-3.508511483669281006e-01
3.202871978282928467e-01
2.371278703212738037e-01
7.299273461103439331e-02
-2.591567933559417725e-01
1.399028450250625610e-01
-3.138905167579650879e-01
-1.357245743274688721e-01
1.888431161642074585e-01
2.190510183572769165e-01
7.169586420059204102e-02
-4.141957759857177734e-01
2.774869799613952637e-01
-1.748353987932205200e-01
-1.870026439428329468e-01
-2.442539036273956299e-01
1.459123492240905762e-01
2.565648853778839111e-01
1.078117871657013893e-03
9.288145601749420166e-02
-2.492790520191192627e-01
2.568983733654022217e-01
-4.446920752525329590e-01
-3.229520022869110107e-01
-1.559906303882598877e-01
1.413375884294509888e-01
1.576804369688034058e-01
-2.349701821804046631e-01
2.290826886892318726e-01
-5.091193015687167645e-04
-2.294386476278305054e-01
-2.231006026268005371e-01
3.072450160980224609e-01
-1.835849834606051445e-04
-1.172615587711334229e-01
-2.575174272060394287e-01
-2.815634012222290039e-01
1.147902607917785645e-01
1.221842393279075623e-01
-2.564417123794555664e-01
-1.995950788259506226e-01
3.423310518264770508e-01
2.185117602348327637e-01
1.746324896812438965e-01
2.939739525318145752e-01
-9.775630384683609009e-02
3.059936761856079102e-01
3.601393401622772217e-01
2.003656476736068726e-01
3.004935979843139648e-01
4.710194766521453857e-01
-1.990731507539749146e-01
7.261171191930770874e-02
3.103018701076507568e-01
-2.552179396152496338e-01
1.767558418214321136e-02
-1.535492390394210815e-01
-1.703646481037139893e-01
-1.570549905300140381e-01
-3.218503892421722412e-01
-1.769863516092300415e-01
-3.127452731132507324e-01
-1.455322206020355225e-01
-3.986112773418426514e-01
-3.568310439586639404e-01
4.360897466540336609e-03
-6.157955154776573181e-02
-3.636391460895538330e-01
-3.172818124294281006e-01
-2.147948741912841797e-01
-6.772305816411972046e-02
9.255566447973251343e-02
1.651547208894044161e-04
-2.904811799526214600e-01
2.172614187002182007e-01
-2.899632155895233154e-01
-2.256051898002624512e-01
3.564636707305908203e-01
-2.363687306642532349e-01
2.815325558185577393e-01
-2.033544480800628662e-01
3.278501927852630615e-01
1.763644367456436157e-01
-2.973829805850982666e-01
-2.586261332035064697e-01
-2.271458953619003296e-01
-2.727375328540802002e-01
2.553384602069854736e-01
2.585916547104716301e-03
-4.103484679944813251e-04
-2.223072052001953125e-01
1.892369240522384644e-01
2.310929894447326660e-01
-2.974790334701538086e-01
-2.328140288591384888e-01
3.795635700225830078e-01
2.723247110843658447e-01
-1.268590800464153290e-02
2.459367960691452026e-01
2.046804428100585938e-01
-2.600700855255126953e-01
-1.760964393615722656e-01
-1.740067452192306519e-01
-1.768468022346496582e-01
-3.537377715110778809e-01
2.308813482522964478e-01
3.550021648406982422e-01
-2.980434298515319824e-01
-2.635409235954284668e-01
-7.528350688517093658e-04
-3.561641573905944824e-01
2.169249057769775391e-01
2.181062251329421997e-01
-1.820574998855590820e-01
-3.545726239681243896e-01
-2.378711551427841187e-01
-3.919214010238647461e-01
-2.536000907421112061e-01
1.755245029926300049e-01
5.156386032467707992e-05
-2.618679106235504150e-01
-2.774616479873657227e-01
-2.594247162342071533e-01
-2.506959140300750732e-01
3.094974672421813011e-04
2.239644378423690796e-01
5.018697585910558701e-03
-2.348639070987701416e-01
1.726254075765609741e-01
2.284753918647766113e-01
1.158109605312347412e-01
-3.276080787181854248e-01
-2.098134011030197144e-01
-2.976518869400024414e-01
2.590735554695129395e-01
2.094915360212326050e-01
3.339696526527404785e-01
3.264200687408447266e-01
3.263503611087799072e-01
1.268144994974136353e-01
-3.482841849327087402e-01
2.399761676788330078e-01
2.114253491163253784e-01
1.580720841884613037e-01
2.436709254980087280e-01
-2.778146564960479736e-01
-3.291985392570495605e-01
-2.530885636806488037e-01
1.760154217481613159e-01
-2.094032913446426392e-01
1.773533374071121216e-01
-1.625044941902160645e-01
4.310024976730346680e-01
-2.864333689212799072e-01
1.275452226400375366e-01
-2.476546019315719604e-01
1.548823493067175150e-04
-2.635643184185028076e-01
-2.463027834892272949e-01
-1.938492208719253540e-01
1.071463525295257568e-02
2.125667780637741089e-01
-2.141782194375991821e-01
3.574643731117248535e-01
-2.299611866474151611e-01
1.560157835483551025e-01
-1.397621780633926392e-01
-3.585681617259979248e-01
1.534807980060577393e-01
-1.711096912622451782e-01
-2.413633465766906738e-01
-2.993493974208831787e-01
-2.320504337549209595e-01
8.359725028276443481e-02
-2.309231758117675781e-01
1.998609900474548340e-01
2.140192538499832153e-01
-2.993423342704772949e-01
4.171945452690124512e-01
-2.254424691200256348e-01
-3.957841992378234863e-01
2.912622690200805664e-01
1.612731963396072388e-01
2.663963735103607178e-01
2.993276119232177734e-01
1.422120183706283569e-01
-1.442875266075134277e-01
-1.897489130496978760e-01
-1.850940287113189697e-01
2.140968441963195801e-01
4.888587817549705505e-02
-2.139216065406799316e-01
2.539997100830078125e-01
-1.542672812938690186e-01
-3.073154389858245850e-01
3.327151353005319834e-04
-3.585591018199920654e-01
-2.368676960468292236e-01
-3.088375031948089600e-01
-3.082801401615142822e-01
-3.872529864311218262e-01
-2.287354469299316406e-01
-2.500310242176055908e-01
-3.260516524314880371e-01
-3.234029114246368408e-01
-1.572954505681991577e-01
-3.160459399223327637e-01
-2.588312029838562012e-01
3.701995301526039839e-04
-1.256379634141921997e-01
-9.030599892139434814e-02
-2.355462610721588135e-01
-2.829767465591430664e-01
-2.062242925167083740e-01
4.767920449376106262e-02
-2.349531799554824829e-01
-2.672089040279388428e-01
2.308561205863952637e-01
-1.707432717084884644e-01
3.058258891105651855e-01
-2.125732451677322388e-01
-2.870409190654754639e-01
2.277145627886056900e-03
2.631960809230804443e-01
-2.660567760467529297e-01
3.143377304077148438e-01
1.994932740926742554e-01
-7.759221829473972321e-03
-2.884891331195831299e-01
1.737791597843170166e-01
-2.078544944524765015e-01
-2.429467290639877319e-01
-2.257433682680130005e-01
1.855814307928085327e-01
1.284070014953613281e-01
2.653065323829650879e-01
-2.057830542325973511e-01
-3.732425272464752197e-01
2.838649153709411621e-01
7.233304530382156372e-02
-3.261382281780242920e-01
-2.856761217117309570e-01
8.495668321847915649e-02
1.029571503750048578e-04
2.924219965934753418e-01
2.435389310121536255e-01
5.756296962499618530e-02
-3.522305786609649658e-01
-3.287677168846130371e-01
-3.898130953311920166e-01
-1.664484292268753052e-01
1.746147274971008301e-01
-1.623925268650054932e-01
-1.705606132745742798e-01
-2.621803283691406250e-01
-2.152320891618728638e-01
1.149031221866607666e-01
-2.962330877780914307e-01
-2.092994749546051025e-01
-2.645902633666992188e-01
-1.296418607234954834e-01
2.006583958864212036e-01
3.424182534217834473e-01
1.647206097841262817e-01
-2.127361297607421875e-01
2.146561294794082642e-01
1.754721850156784058e-01
2.165244370698928833e-01
2.923970818519592285e-01
-3.196725547313690186e-01
-2.874039709568023682e-01
-2.435931414365768433e-01
4.001887440681457520e-01
-3.495588898658752441e-01
1.796652674674987793e-01
1.151448115706443787e-01
-2.122664898633956909e-01
-2.565979063510894775e-01
5.532893701456487179e-04
-1.793819963932037354e-01
2.101981639862060547e-01
2.126867324113845825e-01
-1.170816794037818909e-01
-3.445104360580444336e-01
9.996124356985092163e-02
2.934907376766204834e-02
-1.116340905427932739e-01
-1.739646047353744507e-01
-2.144255489110946655e-01
-3.423175215721130371e-01
2.086984813213348389e-01
5.041674971580505371e-01
-2.260735481977462769e-01
1.886116713285446167e-01
1.957075297832489014e-01
-2.359905093908309937e-01
-2.651027441024780273e-01
-1.882576197385787964e-01
-1.399188488721847534e-01
7.081530056893825531e-04
2.954617738723754883e-01
-2.649354636669158936e-01
-2.056363970041275024e-01
-2.751445770263671875e-01
3.148170113563537598e-01
-2.100702822208404541e-01
-2.301938831806182861e-01
-2.541022598743438721e-01
-2.685323357582092285e-01
1.206811815500259399e-01
-2.587377727031707764e-01
-1.862329095602035522e-01
-2.231481522321701050e-01
-1.827457696199417114e-01
3.629544377326965332e-01
2.372934371232986450e-01
-3.057827949523925781e-01
-2.408832311630249023e-01
2.619416336528956890e-04
-1.265417337417602539e-01
-1.949814707040786743e-01
-2.107676267623901367e-01
-2.884120643138885498e-01
-1.458291616290807724e-02
2.073521018028259277e-01
-1.748752146959304810e-01
2.174735814332962036e-01
1.112686097621917725e-02
-2.845961749553680420e-01
1.499630510807037354e-01
-2.974231839179992676e-01
-2.972426414489746094e-01
-4.026097953319549561e-01
1.560198664665222168e-01
-1.836972534656524658e-01
1.824837625026702881e-01
-3.484965264797210693e-01
4.688991606235504150e-02
-3.558166623115539551e-01
1.230931654572486877e-02
-1.313011889578774571e-04
-2.929072082042694092e-01
1.990728974342346191e-01
2.524560689926147461e-01
-1.108082607388496399e-01
2.277483977377414703e-02
-2.672151625156402588e-01
-2.211088091135025024e-01
-2.136039435863494873e-01
-2.804501056671142578e-01
-2.171753197908401489e-01
1.194484755396842957e-01
-2.970204055309295654e-01
-2.421298623085021973e-01
-1.097694858908653259e-01
-1.655781269073486328e-01
-4.110050213057547808e-06
3.664404153823852539e-01
1.604789793491363525e-01
-1.767942309379577637e-01
3.908202946186065674e-01
-1.188321188092231750e-01
2.809153795242309570e-01
-2.223602235317230225e-01
-2.645822763442993164e-01
-1.540212929248809814e-01
-3.799501061439514160e-01
1.401172671467065811e-02
-2.510589659214019775e-01
5.811930896015837789e-05
-2.035948038101196289e-01
2.485839724540710449e-01
-1.851594746112823486e-01
2.638942599296569824e-01
-2.859776020050048828e-01
-3.882829546928405762e-01
8.120225369930267334e-02
-2.114397734403610229e-01
1.203087568283081055e-01
-3.809118568897247314e-01
-2.091168612241744995e-01
-2.093603461980819702e-01
1.212069839239120483e-01
-1.830840855836868286e-01
3.096152544021606445e-01
1.672976464033126831e-02
-3.516127169132232666e-01
6.297353538684546947e-04
2.714821994304656982e-01
9.826351702213287354e-02
4.784314369317144156e-04
-2.591741681098937988e-01
-1.968378424644470215e-01
-3.378429710865020752e-01
2.274937182664871216e-01
2.218828201293945312e-01
2.214394062757492065e-01
-3.043025434017181396e-01
3.463072180747985840e-01
-9.681500494480133057e-02
-2.102279216051101685e-01
-7.343913894146680832e-04
3.029156625270843506e-01
-2.390396893024444580e-01
2.009932324290275574e-02
1.837422698736190796e-02
2.370114438235759735e-02
-2.511957883834838867e-01
-3.246606886386871338e-01
-2.701442837715148926e-01
2.494622617959976196e-01
-3.235547244548797607e-01
2.298295795917510986e-01
-9.504786692559719086e-03
3.107032179832458496e-01
-1.474781781435012817e-01
1.922329217195510864e-01
1.893202066421508789e-01
-2.454123795032501221e-01
1.875949203968048096e-01
2.051370143890380859e-01
2.724519968032836914e-01
2.470174133777618408e-01
-1.866764128208160400e-01
1.236323043704032898e-01
1.843861937522888184e-01
-2.274345457553863525e-01
-2.560140490531921387e-01
2.090285271406173706e-01
2.069543898105621338e-01
1.714409881969913840e-05
-3.262230455875396729e-01
3.025349974632263184e-01
-2.269429415464401245e-01
-1.849650293588638306e-01
2.828218566719442606e-04
3.521861732006072998e-01
1.312860520556569099e-03
4.493179321289062500e-01
2.245992273092269897e-01
1.373439878225326538e-01
-7.688844949007034302e-02
1.797246783971786499e-01
2.884176075458526611e-01
1.103533953428268433e-01
1.846348047256469727e-01
2.669337987899780273e-01
-2.677040696144104004e-01
1.593538075685501099e-01
-1.213722378015518188e-01
-2.569805085659027100e-01
-2.919557988643646240e-01
-2.315699160099029541e-01
-8.090163464657962322e-05
1.535765379667282104e-01
-3.249679505825042725e-01
-1.883159875869750977e-01
-1.175941724795848131e-05
-1.891636103391647339e-01
2.547286450862884521e-01
-2.006419301033020020e-01
5.467746086651459336e-05
7.296941429376602173e-02
1.718675345182418823e-01
-2.145672440528869629e-01
-2.830508053302764893e-01
-2.401233911514282227e-01
-2.390297800302505493e-01
-2.262962013483047485e-01
2.310377359390258789e-01
7.144450396299362183e-02
-9.483083337545394897e-02
2.347146570682525635e-01
